{"learner":{"attributes":{"scikit_learn":"{\"_estimator_type\": \"classifier\"}"},"feature_names":["entry_hour","atr_5m","rsi_5m","disparity_5m","fvg_size_ratio","volume_ma_ratio"],"feature_types":["int","float","float","float","float","float"],"gradient_booster":{"model":{"cats":{"enc":[],"feature_segments":[],"sorted_idx":[]},"gbtree_model_param":{"num_parallel_tree":"1","num_trees":"100"},"iteration_indptr":[0,1,2,3,4,5,6,7,8,9,10,11,12,13,14,15,16,17,18,19,20,21,22,23,24,25,26,27,28,29,30,31,32,33,34,35,36,37,38,39,40,41,42,43,44,45,46,47,48,49,50,51,52,53,54,55,56,57,58,59,60,61,62,63,64,65,66,67,68,69,70,71,72,73,74,75,76,77,78,79,80,81,82,83,84,85,86,87,88,89,90,91,92,93,94,95,96,97,98,99,100],"tree_info":[0,0,0,0,0,0,0,0,0,0,0,0,0,0,0,0,0,0,0,0,0,0,0,0,0,0,0,0,0,0,0,0,0,0,0,0,0,0,0,0,0,0,0,0,0,0,0,0,0,0,0,0,0,0,0,0,0,0,0,0,0,0,0,0,0,0,0,0,0,0,0,0,0,0,0,0,0,0,0,0,0,0,0,0,0,0,0,0,0,0,0,0,0,0,0,0,0,0,0,0],"trees":[{"base_weights":[5.722381E-8,-8.164381E-2,1.0088732E0,1.1299042E0,-1.4214264E-1,1.3693804E0,-1.6710592E-2,6.917923E-2,1.963688E-2,-9.0815765E-1,-7.090857E-2,6.4175826E-1,1.0142543E-1,-6.2410724E-3,-5.680368E-2,-1.5762275E-2,9.880682E-3,6.0531158E-2,-6.2410724E-3],"categories":[],"categories_nodes":[],"categories_segments":[],"categories_sizes":[],"default_left":[0,0,0,0,0,0,0,0,0,0,0,0,0,0,0,0,0,0,0],"id":0,"left_children":[1,3,5,7,9,11,-1,-1,-1,13,15,17,-1,-1,-1,-1,-1,-1,-1],"loss_changes":[7.4607635E0,6.302678E0,3.7411218E0,2.2279787E-1,4.3390894E0,1.3563347E0,0E0,0E0,0E0,1.0688949E0,4.9776793E0,1.9377916E0,0E0,0E0,0E0,0E0,0E0,0E0,0E0],"parents":[2147483647,0,0,1,1,2,2,3,3,4,4,5,5,9,9,10,10,11,11],"right_children":[2,4,6,8,10,12,-1,-1,-1,14,16,18,-1,-1,-1,-1,-1,-1,-1],"split_conditions":[2.537926E0,2.4135199E1,4.7997856E-1,9.9615896E-1,3.1007751E1,3.6038033E-4,-1.6710592E-2,6.917923E-2,1.963688E-2,2.6137143E-1,7.944515E-1,2.3371428E-1,1.0142543E-1,-6.2410724E-3,-5.680368E-2,-1.5762275E-2,9.880682E-3,6.0531158E-2,-6.2410724E-3],"split_indices":[5,2,1,3,2,4,0,0,0,1,5,1,0,0,0,0,0,0,0],"split_type":[0,0,0,0,0,0,0,0,0,0,0,0,0,0,0,0,0,0,0],"sum_hessian":[8.857809E1,8.279676E1,5.78132E0,3.0971358E0,7.969963E1,4.5424657E0,1.2388543E0,1.6518058E0,1.44533E0,5.78132E0,7.3918304E1,3.0971358E0,1.44533E0,1.6518058E0,4.129514E0,3.861096E1,3.5307346E1,1.44533E0,1.6518058E0],"tree_param":{"num_deleted":"0","num_feature":"6","num_nodes":"19","size_leaf_vector":"1"}},{"base_weights":[1.6467468E-3,-1.4236026E-1,5.3674716E-1,-3.606317E-1,2.9504386E-1,9.3805945E-1,-8.9713484E-1,-4.1412327E-1,4.041671E-2,9.469158E-1,-1.3037199E-2,1.2134094E0,9.871813E-2,-5.1244088E-2,-1.1232222E-2,-3.6748007E-2,-6.6803964E-3,6.524255E-2,-3.5744946E-2,-3.8416136E-2,2.2096394E-2,7.830483E-3,7.9017125E-2,2.9812152E-2,-3.8536794E-2],"categories":[],"categories_nodes":[],"categories_segments":[],"categories_sizes":[],"default_left":[0,0,0,0,0,0,0,0,0,0,0,0,0,0,0,0,0,0,0,0,0,0,0,0,0],"id":1,"left_children":[1,3,5,7,9,11,13,15,-1,17,19,21,23,-1,-1,-1,-1,-1,-1,-1,-1,-1,-1,-1,-1],"loss_changes":[6.9735074E0,6.915099E0,1.1883845E1,3.3377376E0,4.8906198E0,3.458312E0,1.7417383E-1,4.094411E0,0E0,5.5779576E0,6.346644E0,4.23872E0,2.5847526E0,0E0,0E0,0E0,0E0,0E0,0E0,0E0,0E0,0E0,0E0,0E0,0E0],"parents":[2147483647,0,0,1,1,2,2,3,3,4,4,5,5,6,6,7,7,9,9,10,10,11,11,12,12],"right_children":[2,4,6,8,10,12,14,16,-1,18,20,22,24,-1,-1,-1,-1,-1,-1,-1,-1,-1,-1,-1,-1],"split_conditions":[7.8926596E-4,1.8E1,1.0041926E0,1.0070957E0,2.1E1,1.6E1,1.5E1,7.6689446E-1,4.041671E-2,1.0022894E0,5.5920255E-1,1E1,1.2925927E-3,-5.1244088E-2,-1.1232222E-2,-3.6748007E-2,-6.6803964E-3,6.524255E-2,-3.5744946E-2,-3.8416136E-2,2.2096394E-2,7.830483E-3,7.9017125E-2,2.9812152E-2,-3.8536794E-2],"split_indices":[4,0,3,3,0,0,0,5,0,3,5,0,4,0,0,0,0,0,0,0,0,0,0,0,0],"split_type":[0,0,0,0,0,0,0,0,0,0,0,0,0,0,0,0,0,0,0,0,0,0,0,0,0],"sum_hessian":[8.850501E1,7.0315544E1,1.8189466E1,4.7024906E1,2.329064E1,1.4482047E1,3.7074187E0,4.5584698E1,1.4402078E0,6.809261E0,1.6481379E1,1.0569126E1,3.9129207E0,2.6752214E0,1.0321971E0,2.0508383E1,2.5076315E1,5.7792764E0,1.0299844E0,5.9368653E0,1.0544514E1,3.0916657E0,7.477461E0,2.688641E0,1.2242796E0],"tree_param":{"num_deleted":"0","num_feature":"6","num_nodes":"25","size_leaf_vector":"1"}},{"base_weights":[1.5541153E-3,-7.608145E-2,9.3936384E-1,1.0614234E0,-1.3422224E-1,1.2775356E0,-1.681796E-2,7.069921E-2,2.1182258E-2,-8.8493603E-1,-6.54029E-2,6.0692525E-1,9.351868E-2,-6.1763083E-3,-5.5531163E-2,3.2099504E-3,-2.7717276E-2,-7.1414723E-3,5.8601167E-2],"categories":[],"categories_nodes":[],"categories_segments":[],"categories_sizes":[],"default_left":[0,0,0,0,0,0,0,0,0,0,0,0,0,0,0,0,0,0,0],"id":2,"left_children":[1,3,5,7,9,11,-1,-1,-1,13,15,17,-1,-1,-1,-1,-1,-1,-1],"loss_changes":[6.585558E0,5.6684012E0,3.4130812E0,3.3980942E-1,4.0948215E0,1.1208868E0,0E0,0E0,0E0,1.0089798E0,4.7697763E0,1.9227606E0,0E0,0E0,0E0,0E0,0E0,0E0,0E0],"parents":[2147483647,0,0,1,1,2,2,3,3,4,4,5,5,9,9,10,10,11,11],"right_children":[2,4,6,8,10,12,-1,-1,-1,14,16,18,-1,-1,-1,-1,-1,-1,-1],"split_conditions":[2.537926E0,2.4135199E1,4.7997856E-1,2.7296835E-4,3.1007751E1,3.6038033E-4,-1.681796E-2,7.069921E-2,2.1182258E-2,2.6137143E-1,1.002476E0,1.0001591E0,9.351868E-2,-6.1763083E-3,-5.5531163E-2,3.2099504E-3,-2.7717276E-2,-7.1414723E-3,5.8601167E-2],"split_indices":[5,2,1,4,2,4,0,0,0,1,3,3,0,0,0,0,0,0,0],"split_type":[0,0,0,0,0,0,0,0,0,0,0,0,0,0,0,0,0,0,0],"sum_hessian":[8.847018E1,8.255483E1,5.9153395E0,3.1752892E0,7.937955E1,4.67473E0,1.2406093E0,1.2611082E0,1.914181E0,5.6699734E0,7.370957E1,3.1430817E0,1.5316484E0,1.6501452E0,4.0198283E0,5.895209E1,1.4757479E1,1.6719878E0,1.4710938E0],"tree_param":{"num_deleted":"0","num_feature":"6","num_nodes":"19","size_leaf_vector":"1"}},{"base_weights":[2.8619198E-3,-1.3503993E-1,5.0920844E-1,-3.4428525E-1,2.7845007E-1,8.7835604E-1,-8.6458886E-1,-3.9740402E-1,3.9915543E-2,8.8729006E-1,-1.4259722E-2,-1.1790807E-2,1.0462037E0,-9.6069435E-3,-4.9910173E-2,-3.5434164E-2,-6.453325E-3,6.075241E-2,-3.4632307E-2,2.9272307E-2,-2.7251542E-2,6.524656E-2,1.1140338E-2],"categories":[],"categories_nodes":[],"categories_segments":[],"categories_sizes":[],"default_left":[0,0,0,0,0,0,0,0,0,0,0,0,0,0,0,0,0,0,0,0,0,0,0],"id":3,"left_children":[1,3,5,7,9,11,13,15,-1,17,19,-1,21,-1,-1,-1,-1,-1,-1,-1,-1,-1,-1],"loss_changes":[6.310458E0,6.2427998E0,1.0569118E1,3.2075133E0,4.365503E0,3.1907578E0,2.2158337E-1,3.765257E0,0E0,4.956307E0,5.8827567E0,0E0,2.6630878E0,0E0,0E0,0E0,0E0,0E0,0E0,0E0,0E0,0E0,0E0],"parents":[2147483647,0,0,1,1,2,2,3,3,4,4,5,5,6,6,7,7,9,9,10,10,12,12],"right_children":[2,4,6,8,10,12,14,16,-1,18,20,-1,22,-1,-1,-1,-1,-1,-1,-1,-1,-1,-1],"split_conditions":[7.8926596E-4,1.8E1,1.0041926E0,1.0070957E0,2.1E1,9.947574E-1,7.8105E-1,7.6689446E-1,3.9915543E-2,1.0022894E0,1.3225764E-4,-1.1790807E-2,1.6E1,-9.6069435E-3,-4.9910173E-2,-3.5434164E-2,-6.453325E-3,6.075241E-2,-3.4632307E-2,2.9272307E-2,-2.7251542E-2,6.524656E-2,1.1140338E-2],"split_indices":[4,0,3,3,0,3,1,5,0,3,4,0,0,0,0,0,0,0,0,0,0,0,0],"split_type":[0,0,0,0,0,0,0,0,0,0,0,0,0,0,0,0,0,0,0,0,0,0,0],"sum_hessian":[8.838911E1,7.004569E1,1.8343412E1,4.6620766E1,2.3424927E1,1.47426195E1,3.6007938E0,4.517289E1,1.4478745E0,6.9459558E0,1.647897E1,1.8771517E0,1.2865467E1,1.0010018E0,2.599792E0,2.0153378E1,2.5019512E1,5.9438534E0,1.0021025E0,7.6886897E0,8.79028E0,9.344445E0,3.5210218E0],"tree_param":{"num_deleted":"0","num_feature":"6","num_nodes":"23","size_leaf_vector":"1"}},{"base_weights":[2.8174128E-3,-7.165983E-2,8.883351E-1,1.0124817E0,-1.2804241E-1,1.2136168E0,-1.7101597E-2,6.8002425E-2,1.986304E-2,-8.624871E-1,-6.1715905E-2,7.56587E-2,2.0294596E-2,-6.024121E-3,-5.4336797E-2,2.9719828E-3,-2.6344884E-2],"categories":[],"categories_nodes":[],"categories_segments":[],"categories_sizes":[],"default_left":[0,0,0,0,0,0,0,0,0,0,0,0,0,0,0,0,0],"id":4,"left_children":[1,3,5,7,9,11,-1,-1,-1,13,15,-1,-1,-1,-1,-1,-1],"loss_changes":[5.9538884E0,5.2220297E0,3.218038E0,3.6435604E-1,3.8476257E0,7.7926445E-1,0E0,0E0,0E0,9.598875E-1,4.2313533E0,0E0,0E0,0E0,0E0,0E0,0E0],"parents":[2147483647,0,0,1,1,2,2,3,3,4,4,5,5,9,9,10,10],"right_children":[2,4,6,8,10,12,-1,-1,-1,14,16,-1,-1,-1,-1,-1,-1],"split_conditions":[2.537926E0,2.4135199E1,1.0006002E0,8.990836E-1,3.1007751E1,2.8928572E-1,-1.7101597E-2,6.8002425E-2,1.986304E-2,2.6137143E-1,1.002476E0,7.56587E-2,2.0294596E-2,-6.024121E-3,-5.4336797E-2,2.9719828E-3,-2.6344884E-2],"split_indices":[5,2,3,5,2,1,0,0,0,1,3,0,0,0,0,0,0],"split_type":[0,0,0,0,0,0,0,0,0,0,0,0,0,0,0,0,0],"sum_hessian":[8.831233E1,8.2308754E1,6.003575E0,3.2306907E0,7.9078064E1,4.7590117E0,1.2445631E0,1.2907947E0,1.939896E0,5.5556583E0,7.352241E1,2.8344388E0,1.9245728E0,1.6461325E0,3.9095259E0,5.902238E1,1.4500026E1],"tree_param":{"num_deleted":"0","num_feature":"6","num_nodes":"17","size_leaf_vector":"1"}},{"base_weights":[3.5047198E-3,-1.2874323E-1,4.841457E-1,-3.283127E-1,2.6018095E-1,8.248697E-1,-8.3396554E-1,-3.8103586E-1,3.938226E-2,-4.4918485E-2,3.918017E-1,-1.1240314E-2,9.7919893E-1,-1.3614803E-2,-4.7470145E-2,-1.3443102E-2,-5.684469E-2,-8.229571E-3,4.12953E-2,6.0730524E-2,1.0691813E-2],"categories":[],"categories_nodes":[],"categories_segments":[],"categories_sizes":[],"default_left":[0,0,0,0,0,0,0,0,0,0,0,0,0,0,0,0,0,0,0,0,0],"id":5,"left_children":[1,3,5,7,9,11,13,15,-1,-1,17,-1,19,-1,-1,-1,-1,-1,-1,-1,-1],"loss_changes":[5.7345595E0,5.578512E0,9.430061E0,3.0780206E0,4.0967894E0,2.8071947E0,3.295517E-2,3.5740018E0,0E0,0E0,5.630516E0,0E0,2.2824802E0,0E0,0E0,0E0,0E0,0E0,0E0,0E0,0E0],"parents":[2147483647,0,0,1,1,2,2,3,3,4,4,5,5,6,6,7,7,10,10,12,12],"right_children":[2,4,6,8,10,12,14,16,-1,-1,18,-1,20,-1,-1,-1,-1,-1,-1,-1,-1],"split_conditions":[7.8926596E-4,1.8E1,1.0041926E0,1.0070957E0,9.976876E-1,9.947574E-1,1.2294693E-3,8.956571E-1,3.938226E-2,-4.4918485E-2,7.442959E-1,-1.1240314E-2,1.6E1,-1.3614803E-2,-4.7470145E-2,-1.3443102E-2,-5.684469E-2,-8.229571E-3,4.12953E-2,6.0730524E-2,1.0691813E-2],"split_indices":[4,0,3,3,3,3,4,1,0,0,5,0,0,0,0,0,0,0,0,0,0],"split_type":[0,0,0,0,0,0,0,0,0,0,0,0,0,0,0,0,0,0,0,0,0],"sum_hessian":[8.823682E1,6.9771416E1,1.8465403E1,4.6213585E1,2.3557827E1,1.4969959E1,3.4954429E0,4.475758E1,1.4560052E0,1.8090235E0,2.1748804E1,1.8603121E0,1.3109647E1,1.1685569E0,2.3268857E0,4.0154167E1,4.6034145E0,9.803925E0,1.1944879E1,9.576972E0,3.5326753E0],"tree_param":{"num_deleted":"0","num_feature":"6","num_nodes":"21","size_leaf_vector":"1"}},{"base_weights":[2.6433407E-3,1.0830001E0,-5.3926874E-2,6.878507E-2,1.5362145E-2,-1.2322902E-1,7.572256E-1,-7.869508E-1,-5.3925913E-2,1.1254784E0,-3.4922656E-2,-1.728853E-2,-5.1841047E-2,2.2310276E-2,-7.98239E-3,2.6631689E-2,8.250689E-2],"categories":[],"categories_nodes":[],"categories_segments":[],"categories_sizes":[],"default_left":[0,0,0,0,0,0,0,0,0,0,0,0,0,0,0,0,0],"id":6,"left_children":[1,3,5,-1,-1,7,9,11,13,15,-1,-1,-1,-1,-1,-1,-1],"loss_changes":[5.5081034E0,5.955453E-1,4.910089E0,0E0,0E0,3.628252E0,4.4765396E0,4.651003E-1,3.9485443E0,9.491925E-1,0E0,0E0,0E0,0E0,0E0,0E0,0E0],"parents":[2147483647,0,0,1,1,2,2,5,5,6,6,7,7,8,8,9,9],"right_children":[2,4,6,-1,-1,8,10,12,14,16,-1,-1,-1,-1,-1,-1,-1],"split_conditions":[2.4135199E1,9.9615896E-1,2.537926E0,6.878507E-2,1.5362145E-2,3.1589445E1,4.7997856E-1,3.0507857E-1,9.9873376E-1,3.6038033E-4,-3.4922656E-2,-1.728853E-2,-5.1841047E-2,2.2310276E-2,-7.98239E-3,2.6631689E-2,8.250689E-2],"split_indices":[2,3,5,0,0,2,1,1,3,4,0,0,0,0,0,0,0],"split_type":[0,0,0,0,0,0,0,0,0,0,0,0,0,0,0,0,0],"sum_hessian":[8.816978E1,3.4842634E0,8.468551E1,1.9682543E0,1.5160092E0,7.8801094E1,5.8844194E0,6.4711475E0,7.232994E1,4.8773894E0,1.0070299E0,3.201774E0,3.269374E0,1.2059643E1,6.02703E1,3.2360165E0,1.6413728E0],"tree_param":{"num_deleted":"0","num_feature":"6","num_nodes":"17","size_leaf_vector":"1"}},{"base_weights":[3.5869256E-3,1.034699E0,-5.1170632E-2,6.54635E-2,1.4848535E-2,-2.9960012E-1,1.7166846E-1,-4.3059352E-1,5.801776E-1,5.972389E-1,-1.4568426E-1,-1.282571E-3,-3.7947576E-2,7.026205E-2,-4.251977E-2,-3.57095E-2,3.537797E-2,6.7726366E-2,-1.49047E-2],"categories":[],"categories_nodes":[],"categories_segments":[],"categories_sizes":[],"default_left":[0,0,0,0,0,0,0,0,0,0,0,0,0,0,0,0,0,0,0],"id":7,"left_children":[1,3,5,-1,-1,7,9,11,13,15,17,-1,-1,-1,-1,-1,-1,-1,-1],"loss_changes":[5.0818777E0,5.305252E-1,4.7863674E0,0E0,0E0,4.952648E0,6.262175E0,4.7796297E0,7.939928E0,3.3594556E0,6.5762205E0,0E0,0E0,0E0,0E0,0E0,0E0,0E0,0E0],"parents":[2147483647,0,0,1,1,2,2,5,5,6,6,7,7,8,8,9,9,10,10],"right_children":[2,4,6,-1,-1,8,10,12,14,16,18,-1,-1,-1,-1,-1,-1,-1,-1],"split_conditions":[2.4135199E1,9.9615896E-1,7.944515E-1,6.54635E-2,1.4848535E-2,1.0473641E-3,3.6162856E-1,4.7576177E-1,1.0019745E0,2.8227232E1,8.2103837E-1,-1.282571E-3,-3.7947576E-2,7.026205E-2,-4.251977E-2,-3.57095E-2,3.537797E-2,6.7726366E-2,-1.49047E-2],"split_indices":[2,3,5,0,0,4,1,5,3,2,5,0,0,0,0,0,0,0,0],"split_type":[0,0,0,0,0,0,0,0,0,0,0,0,0,0,0,0,0,0,0],"sum_hessian":[8.806885E1,3.5386322E0,8.453021E1,2.014234E0,1.5243981E0,3.9807182E1,4.472303E1,3.509267E1,4.7145143E0,1.8727493E1,2.5995535E1,1.61966E1,1.8896069E1,3.0012765E0,1.7132378E0,1.0284209E0,1.7699074E1,1.6699866E0,2.4325548E1],"tree_param":{"num_deleted":"0","num_feature":"6","num_nodes":"19","size_leaf_vector":"1"}},{"base_weights":[4.5735943E-3,-1.1867868E-1,4.4605777E-1,-3.0807826E-1,2.4473183E-1,7.533678E-1,-7.990486E-1,-3.6049438E-1,3.8969766E-2,8.047147E-1,-2.8841462E-2,-1.1950017E-2,8.9875203E-1,-4.604953E-2,-1.1868163E-2,-1.2613575E-2,-5.5284377E-2,5.5819478E-2,-1.9953687E-2,-3.610028E-2,1.8402511E-2,5.2549704E-3,5.522708E-2],"categories":[],"categories_nodes":[],"categories_segments":[],"categories_sizes":[],"default_left":[0,0,0,0,0,0,0,0,0,0,0,0,0,0,0,0,0,0,0,0,0,0,0],"id":8,"left_children":[1,3,5,7,9,11,13,15,-1,17,19,-1,21,-1,-1,-1,-1,-1,-1,-1,-1,-1,-1],"loss_changes":[4.892317E0,4.9152393E0,8.10936E0,2.9410782E0,3.7992644E0,2.5594158E0,8.065295E-2,3.3667474E0,0E0,3.4936552E0,5.0868444E0,0E0,2.2332716E0,0E0,0E0,0E0,0E0,0E0,0E0,0E0,0E0,0E0,0E0],"parents":[2147483647,0,0,1,1,2,2,3,3,4,4,5,5,6,6,7,7,9,9,10,10,12,12],"right_children":[2,4,6,8,10,12,14,16,-1,18,20,-1,22,-1,-1,-1,-1,-1,-1,-1,-1,-1,-1],"split_conditions":[7.8926596E-4,1.8E1,1.0041926E0,1.0070957E0,2.1E1,9.947574E-1,7.5452934E1,8.956571E-1,3.8969766E-2,1.0020586E0,5.5920255E-1,-1.1950017E-2,1E1,-4.604953E-2,-1.1868163E-2,-1.2613575E-2,-5.5284377E-2,5.5819478E-2,-1.9953687E-2,-3.610028E-2,1.8402511E-2,5.2549704E-3,5.522708E-2],"split_indices":[4,0,3,3,0,3,2,1,0,3,5,0,0,0,0,0,0,0,0,0,0,0,0],"split_type":[0,0,0,0,0,0,0,0,0,0,0,0,0,0,0,0,0,0,0,0,0,0,0],"sum_hessian":[8.79364E1,6.931611E1,1.8620289E1,4.566765E1,2.3648462E1,1.5251049E1,3.3692393E0,4.4205452E1,1.4621962E0,7.124231E0,1.6524233E1,1.8665276E0,1.3384522E1,2.2426648E0,1.1265746E0,3.9768486E1,4.4369645E0,5.716711E0,1.4075195E0,5.718254E0,1.0805978E1,3.0669947E0,1.0317528E1],"tree_param":{"num_deleted":"0","num_feature":"6","num_nodes":"23","size_leaf_vector":"1"}},{"base_weights":[3.930794E-3,9.874917E-1,-4.9052387E-2,6.2304717E-2,1.4281436E-2,-9.2886007E-1,9.181907E-3,-5.2285995E-2,-1.113129E-2,-2.5557864E-1,2.5408894E-1,-1.9389195E-2,3.1071624E-2,2.9628545E-2,-1.6451739E-3],"categories":[],"categories_nodes":[],"categories_segments":[],"categories_sizes":[],"default_left":[0,0,0,0,0,0,0,0,0,0,0,0,0,0,0],"id":9,"left_children":[1,3,5,-1,-1,7,9,-1,-1,11,13,-1,-1,-1,-1],"loss_changes":[4.6770277E0,4.767027E-1,4.375406E0,0E0,0E0,2.046957E-1,5.3126616E0,0E0,0E0,4.80783E0,4.1522374E0,0E0,0E0,0E0,0E0],"parents":[2147483647,0,0,1,1,2,2,5,5,6,6,9,9,10,10],"right_children":[2,4,6,-1,-1,8,10,-1,-1,12,14,-1,-1,-1,-1],"split_conditions":[2.4135199E1,9.9615896E-1,9.967203E-1,6.2304717E-2,1.4281436E-2,3.5714287E1,7.944515E-1,-5.2285995E-2,-1.113129E-2,1.0473641E-3,3.6162856E-1,-1.9389195E-2,3.1071624E-2,2.9628545E-2,-1.6451739E-3],"split_indices":[2,3,3,0,0,2,5,0,0,4,1,0,0,0,0],"split_type":[0,0,0,0,0,0,0,0,0,0,0,0,0,0,0],"sum_hessian":[8.78197E1,3.5873618E0,8.423234E1,2.054842E0,1.5325198E0,4.301071E0,7.993127E1,3.2779703E0,1.0231007E0,3.838788E1,4.154339E1,3.3843903E1,4.5439744E0,1.8573195E1,2.2970192E1],"tree_param":{"num_deleted":"0","num_feature":"6","num_nodes":"15","size_leaf_vector":"1"}},{"base_weights":[4.221618E-3,1.0392133E-1,-4.8610148E-1,-4.8787337E-2,8.8413525E-1,-8.3939123E-1,-1.9616103E-1,-1.452648E-1,8.337779E-1,-1.6343357E-2,1.3306549E0,-4.4422275E-3,-5.3239085E-2,3.4296048E-1,-5.2209496E-1,4.07599E-3,-2.2535508E-2,-3.581012E-2,6.320932E-2,4.8501957E-2,-2.8225139E-2,1.0927891E-2,8.5190654E-2,4.6777632E-2,-3.7065983E-2,-4.8022863E-2,-8.98659E-5],"categories":[],"categories_nodes":[],"categories_segments":[],"categories_sizes":[],"default_left":[0,0,0,0,0,0,0,0,0,0,0,0,0,0,0,0,0,0,0,0,0,0,0,0,0,0,0],"id":10,"left_children":[1,3,5,7,9,11,13,15,17,19,21,-1,-1,23,25,-1,-1,-1,-1,-1,-1,-1,-1,-1,-1,-1,-1],"loss_changes":[4.3871636E0,8.924819E0,1.3888607E0,5.510154E0,4.949027E0,1.0102735E0,1.87208E0,4.047858E0,5.165127E0,3.278163E0,3.0323114E0,0E0,0E0,3.41388E0,1.4582357E0,0E0,0E0,0E0,0E0,0E0,0E0,0E0,0E0,0E0,0E0,0E0,0E0],"parents":[2147483647,0,0,1,1,2,2,3,3,4,4,5,5,6,6,7,7,8,8,9,9,10,10,13,13,14,14],"right_children":[2,4,6,8,10,12,14,16,18,20,22,-1,-1,24,26,-1,-1,-1,-1,-1,-1,-1,-1,-1,-1,-1,-1],"split_conditions":[1.002476E0,9.1953017E-4,6.817289E1,1.0017424E0,3.4953156E1,1.0034448E0,7.3067154E1,3.6162856E-1,3.6460424E-5,2.3240772E1,1E1,-4.4422275E-3,-5.3239085E-2,1.0355487E0,7.68084E1,4.07599E-3,-2.2535508E-2,-3.581012E-2,6.320932E-2,4.8501957E-2,-2.8225139E-2,1.0927891E-2,8.5190654E-2,4.6777632E-2,-3.7065983E-2,-4.8022863E-2,-8.98659E-5],"split_indices":[3,4,2,3,2,3,2,1,4,2,0,0,0,5,2,0,0,0,0,0,0,0,0,0,0,0,0],"split_type":[0,0,0,0,0,0,0,0,0,0,0,0,0,0,0,0,0,0,0,0,0,0,0,0,0,0,0],"sum_hessian":[8.7711075E1,7.35449E1,1.4166177E1,6.2290466E1,1.1254436E1,5.5312967E0,8.63488E0,5.690528E1,5.385185E0,4.0501184E0,7.204317E0,1.5994229E0,3.9318736E0,3.233751E0,5.401129E0,3.307852E1,2.382676E1,1.026079E0,4.3591056E0,1.1718357E0,2.8782828E0,2.208419E0,4.995898E0,2.1796649E0,1.0540862E0,2.4722376E0,2.9288914E0],"tree_param":{"num_deleted":"0","num_feature":"6","num_nodes":"27","size_leaf_vector":"1"}},{"base_weights":[4.1442644E-3,9.312178E-1,-4.6572782E-2,5.8378197E-2,1.3794434E-2,-8.946296E-1,9.519426E-3,-5.0088137E-2,-1.4002618E-2,-2.5389352E-1,2.4456626E-1,4.5437664E-3,-2.838238E-2,3.0573687E-2,-2.3926287E-3],"categories":[],"categories_nodes":[],"categories_segments":[],"categories_sizes":[],"default_left":[0,0,0,0,0,0,0,0,0,0,0,0,0,0,0],"id":11,"left_children":[1,3,5,-1,-1,7,9,-1,-1,11,13,-1,-1,-1,-1],"loss_changes":[4.20879E0,3.9697552E-1,4.049462E0,0E0,0E0,6.713772E-2,5.056593E0,0E0,0E0,4.2193966E0,4.657627E0,0E0,0E0,0E0,0E0],"parents":[2147483647,0,0,1,1,2,2,5,5,6,6,9,9,10,10],"right_children":[2,4,6,-1,-1,8,10,-1,-1,12,14,-1,-1,-1,-1],"split_conditions":[2.4135199E1,9.9615896E-1,2.9035639E1,5.8378197E-2,1.3794434E-2,9.976876E-1,7.944515E-1,-5.0088137E-2,-1.4002618E-2,4.8852515E-1,3.6162856E-1,4.5437664E-3,-2.838238E-2,3.0573687E-2,-2.3926287E-3],"split_indices":[2,3,2,0,0,3,5,0,0,5,1,0,0,0,0],"split_type":[0,0,0,0,0,0,0,0,0,0,0,0,0,0,0],"sum_hessian":[8.759123E1,3.6427715E0,8.3948456E1,2.1027603E0,1.5400112E0,4.280618E0,7.966784E1,3.108706E0,1.1719124E0,3.752926E1,4.213858E1,1.8219316E1,1.9309944E1,1.8205036E1,2.3933544E1],"tree_param":{"num_deleted":"0","num_feature":"6","num_nodes":"15","size_leaf_vector":"1"}},{"base_weights":[3.974423E-3,-5.9008382E-2,7.1705496E-1,7.967555E-1,-1.0656685E-1,9.967976E-1,-1.759882E-2,6.00217E-2,1.1229041E-2,-5.8715396E-2,-5.2767027E-2,4.1885513E-1,6.978112E-2,-4.0141832E-2,-1.8564144E-5,-3.726293E-2,5.5984583E-2],"categories":[],"categories_nodes":[],"categories_segments":[],"categories_sizes":[],"default_left":[0,0,0,0,0,0,0,0,0,0,0,0,0,0,0,0,0],"id":12,"left_children":[1,3,5,7,9,11,-1,-1,-1,13,-1,15,-1,-1,-1,-1,-1],"loss_changes":[4.0164165E0,3.4315505E0,2.5211844E0,7.576008E-1,3.5147655E0,8.014407E-1,0E0,0E0,0E0,3.3017917E0,0E0,4.0032587E0,0E0,0E0,0E0,0E0,0E0],"parents":[2147483647,0,0,1,1,2,2,3,3,4,4,5,5,9,9,11,11],"right_children":[2,4,6,8,10,12,-1,-1,-1,14,-1,16,-1,-1,-1,-1,-1],"split_conditions":[2.537926E0,2.4135199E1,1.0006002E0,2.7296835E-4,2.0132105E0,3.6038033E-4,-1.759882E-2,6.00217E-2,1.1229041E-2,4.0094623E-5,-5.2767027E-2,9.9942005E-1,6.978112E-2,-4.0141832E-2,-1.8564144E-5,-3.726293E-2,5.5984583E-2],"split_indices":[5,2,3,4,5,4,0,0,0,4,0,3,0,0,0,0,0],"split_type":[0,0,0,0,0,0,0,0,0,0,0,0,0,0,0,0,0],"sum_hessian":[8.748684E1,8.122949E1,6.257343E0,3.447222E0,7.778227E1,5.013093E0,1.2442499E0,1.3774141E0,2.069808E0,7.505858E1,2.7236977E0,2.8840296E0,2.1290631E0,4.529459E0,7.052911E1,1.0599806E0,1.8240491E0],"tree_param":{"num_deleted":"0","num_feature":"6","num_nodes":"17","size_leaf_vector":"1"}},{"base_weights":[4.2703166E-3,9.8959684E-2,-4.669642E-1,-4.619352E-2,8.325674E-1,-8.159839E-1,-1.8488757E-1,-1.3944164E-1,7.932215E-1,-3.1435173E-2,1.2552888E0,-4.1994485E-3,-5.2065976E-2,3.3048767E-1,-5.025758E-1,3.4543665E-3,-2.1257099E-2,-2.2293242E-2,6.2106844E-2,4.4278014E-2,-2.7577644E-2,7.490784E-2,-3.9994536E-4,4.51017E-2,-3.653817E-2,-4.6907693E-2,1.5718333E-4],"categories":[],"categories_nodes":[],"categories_segments":[],"categories_sizes":[],"default_left":[0,0,0,0,0,0,0,0,0,0,0,0,0,0,0,0,0,0,0,0,0,0,0,0,0,0,0],"id":13,"left_children":[1,3,5,7,9,11,13,15,17,19,21,-1,-1,23,25,-1,-1,-1,-1,-1,-1,-1,-1,-1,-1,-1,-1],"loss_changes":[3.9912102E0,7.9656415E0,1.3227103E0,5.0492682E0,4.5497684E0,9.6769905E-1,1.7330871E0,3.4631925E0,4.1459103E0,2.8886983E0,2.5636063E0,0E0,0E0,3.23888E0,1.3945942E0,0E0,0E0,0E0,0E0,0E0,0E0,0E0,0E0,0E0,0E0,0E0,0E0],"parents":[2147483647,0,0,1,1,2,2,3,3,4,4,5,5,6,6,7,7,8,8,9,9,10,10,13,13,14,14],"right_children":[2,4,6,8,10,12,14,16,18,20,22,-1,-1,24,26,-1,-1,-1,-1,-1,-1,-1,-1,-1,-1,-1,-1],"split_conditions":[1.002476E0,9.1953017E-4,6.817289E1,1.0017424E0,3.4953156E1,1.0034448E0,7.3067154E1,3.6162856E-1,5.551135E-5,2.3240772E1,1.0005231E0,-4.1994485E-3,-5.2065976E-2,1.0355487E0,7.68084E1,3.4543665E-3,-2.1257099E-2,-2.2293242E-2,6.2106844E-2,4.4278014E-2,-2.7577644E-2,7.490784E-2,-3.9994536E-4,4.51017E-2,-3.653817E-2,-4.6907693E-2,1.5718333E-4],"split_indices":[3,4,2,3,2,3,2,1,4,2,3,0,0,5,2,0,0,0,0,0,0,0,0,0,0,0,0],"split_type":[0,0,0,0,0,0,0,0,0,0,0,0,0,0,0,0,0,0,0,0,0,0,0,0,0,0,0],"sum_hessian":[8.7411476E1,7.344376E1,1.3967713E1,6.2094624E1,1.1349143E1,5.39705E0,8.570663E0,5.6636883E1,5.457741E0,4.0325766E0,7.316567E0,1.5934646E0,3.8035853E0,3.2530532E0,5.3176107E0,3.3178505E1,2.3458378E1,1.4532653E0,4.0044756E0,1.2051742E0,2.827402E0,5.9808297E0,1.3357372E0,2.2118626E0,1.0411907E0,2.3975258E0,2.920085E0],"tree_param":{"num_deleted":"0","num_feature":"6","num_nodes":"27","size_leaf_vector":"1"}},{"base_weights":[4.0981555E-3,9.5405824E-2,-4.5442846E-1,-4.3691803E-2,7.92251E-1,-7.977063E-1,-1.8046796E-1,-1.3323832E-1,7.4979895E-1,-2.678736E-2,1.1852278E0,-4.0751933E-3,-5.113701E-2,3.1369245E-1,-4.8947525E-1,-1.5384301E-2,9.093401E-3,-2.2180896E-2,5.8993638E-2,4.2886823E-2,-2.6781777E-2,8.777449E-3,7.62215E-2,4.2966817E-2,-3.5883185E-2,-4.6047755E-2,1.5131793E-4],"categories":[],"categories_nodes":[],"categories_segments":[],"categories_sizes":[],"default_left":[0,0,0,0,0,0,0,0,0,0,0,0,0,0,0,0,0,0,0,0,0,0,0,0,0,0,0],"id":14,"left_children":[1,3,5,7,9,11,13,15,17,19,21,-1,-1,23,25,-1,-1,-1,-1,-1,-1,-1,-1,-1,-1,-1,-1],"loss_changes":[3.7387197E0,7.2494016E0,1.2508197E0,4.576016E0,4.03498E0,9.3046E-1,1.6103997E0,3.2143192E0,3.879659E0,2.714656E0,2.6185322E0,0E0,0E0,3.0253394E0,1.3331957E0,0E0,0E0,0E0,0E0,0E0,0E0,0E0,0E0,0E0,0E0,0E0,0E0],"parents":[2147483647,0,0,1,1,2,2,3,3,4,4,5,5,6,6,7,7,8,8,9,9,10,10,13,13,14,14],"right_children":[2,4,6,8,10,12,14,16,18,20,22,-1,-1,24,26,-1,-1,-1,-1,-1,-1,-1,-1,-1,-1,-1,-1],"split_conditions":[1.002476E0,9.1953017E-4,6.817289E1,1.0017424E0,3.4953156E1,1.0034448E0,7.3067154E1,1.8E1,5.8706467E1,2.3240772E1,1E1,-4.0751933E-3,-5.113701E-2,1.0355487E0,7.68084E1,-1.5384301E-2,9.093401E-3,-2.2180896E-2,5.8993638E-2,4.2886823E-2,-2.6781777E-2,8.777449E-3,7.62215E-2,4.2966817E-2,-3.5883185E-2,-4.6047755E-2,1.5131793E-4],"split_indices":[3,4,2,3,2,3,2,0,2,2,0,0,0,5,2,0,0,0,0,0,0,0,0,0,0,0,0],"split_type":[0,0,0,0,0,0,0,0,0,0,0,0,0,0,0,0,0,0,0,0,0,0,0,0,0,0,0],"sum_hessian":[8.726438E1,7.3433334E1,1.3831052E1,6.1995647E1,1.1437683E1,5.290365E0,8.540687E0,5.645654E1,5.539111E0,4.0106206E0,7.4270625E0,1.5905142E0,3.699851E0,3.280074E0,5.260613E0,3.6353973E1,2.0102566E1,1.4590057E0,4.0801053E0,1.2142549E0,2.7963657E0,2.2492921E0,5.17777E0,2.2542448E0,1.0258291E0,2.3403144E0,2.9202988E0],"tree_param":{"num_deleted":"0","num_feature":"6","num_nodes":"27","size_leaf_vector":"1"}},{"base_weights":[4.1732164E-3,1.5859593E-1,-2.58995E-1,-3.259959E-2,1.0333416E0,-8.8864785E-1,-2.9277945E-2,-2.2465515E-1,7.2962177E-1,9.131324E-2,5.3257895E-1,-1.0510037E0,-2.4759937E-3,6.2066144E-1,-3.9006156E-1,1.0330357E-3,-2.9897332E-2,-1.1225824E-3,6.2925324E-2,-9.161475E-3,4.673494E-2,-5.7426948E-2,-1.1772609E-2,5.3295004E-3,6.0891576E-2,-1.19869355E-2,-3.979951E-2],"categories":[],"categories_nodes":[],"categories_segments":[],"categories_sizes":[],"default_left":[0,0,0,0,0,0,0,0,0,0,0,0,0,0,0,0,0,0,0,0,0,0,0,0,0,0,0],"id":15,"left_children":[1,3,5,7,9,11,13,15,17,-1,19,21,-1,23,25,-1,-1,-1,-1,-1,-1,-1,-1,-1,-1,-1,-1],"loss_changes":[3.6206584E0,9.421298E0,4.7402325E0,7.04881E0,3.0371504E0,1.1433415E0,6.145963E0,3.5224597E0,3.8868794E0,0E0,2.3592093E0,3.1044483E-1,0E0,2.747674E0,8.3458567E-1,0E0,0E0,0E0,0E0,0E0,0E0,0E0,0E0,0E0,0E0,0E0,0E0],"parents":[2147483647,0,0,1,1,2,2,3,3,4,4,5,5,6,6,7,7,8,8,10,10,11,11,13,13,14,14],"right_children":[2,4,6,8,10,12,14,16,18,-1,20,22,-1,24,26,-1,-1,-1,-1,-1,-1,-1,-1,-1,-1,-1,-1],"split_conditions":[1.0005476E0,1.0000131E0,1.0011281E0,9.1953017E-4,5.0290653E1,1.680395E0,1.0021677E0,9.9929017E-1,3.4953156E1,9.131324E-2,7.310761E-1,1.9E1,-2.4759937E-3,1.1304942E0,1.1244663E0,1.0330357E-3,-2.9897332E-2,-1.1225824E-3,6.2925324E-2,-9.161475E-3,4.673494E-2,-5.7426948E-2,-1.1772609E-2,5.3295004E-3,6.0891576E-2,-1.19869355E-2,-3.979951E-2],"split_indices":[3,3,3,4,2,5,3,3,2,0,5,0,0,5,5,0,0,0,0,0,0,0,0,0,0,0,0],"split_type":[0,0,0,0,0,0,0,0,0,0,0,0,0,0,0,0,0,0,0,0,0,0,0,0,0,0,0],"sum_hessian":[8.708212E1,5.5130074E1,3.1952051E1,4.6031563E1,9.098512E0,7.7743006E0,2.417775E1,3.733068E1,8.700883E0,2.4972773E0,6.601234E0,6.302406E0,1.4718946E0,8.373272E0,1.5804479E1,2.309681E1,1.4233872E1,3.9877937E0,4.713089E0,2.5702698E0,4.030964E0,5.264504E0,1.0379019E0,5.133022E0,3.2402496E0,1.2694183E1,3.110296E0],"tree_param":{"num_deleted":"0","num_feature":"6","num_nodes":"27","size_leaf_vector":"1"}},{"base_weights":[4.9617845E-3,8.384299E-1,-4.188119E-2,5.302897E-2,1.1914317E-2,-8.839708E-1,1.1799209E-2,-4.9659383E-2,-1.1072771E-2,-2.282276E-1,2.2912842E-1,-2.3551803E-2,8.313614E-3,2.545741E-2,-8.7899587E-4],"categories":[],"categories_nodes":[],"categories_segments":[],"categories_sizes":[],"default_left":[0,0,0,0,0,0,0,0,0,0,0,0,0,0,0],"id":16,"left_children":[1,3,5,-1,-1,7,9,-1,-1,11,13,-1,-1,-1,-1],"loss_changes":[3.4669194E0,3.7720942E-1,3.815459E0,0E0,0E0,1.4600277E-1,4.231618E0,0E0,0E0,3.7730298E0,2.9481566E0,0E0,0E0,0E0,0E0],"parents":[2147483647,0,0,1,1,2,2,5,5,6,6,9,9,10,10],"right_children":[2,4,6,-1,-1,8,10,-1,-1,12,14,-1,-1,-1,-1],"split_conditions":[2.4135199E1,9.9615896E-1,9.967203E-1,5.302897E-2,1.1914317E-2,1.3530988E0,7.944515E-1,-4.9659383E-2,-1.1072771E-2,4.089422E-4,3.6162856E-1,-2.3551803E-2,8.313614E-3,2.545741E-2,-8.7899587E-4],"split_indices":[2,3,3,0,0,5,5,0,0,4,1,0,0,0,0],"split_type":[0,0,0,0,0,0,0,0,0,0,0,0,0,0,0],"sum_hessian":[8.6900055E1,3.7248993E0,8.3175156E1,2.1586447E0,1.5662546E0,4.0574985E0,7.911766E1,3.0547936E0,1.0027046E0,3.757178E1,4.154588E1,2.3137194E1,1.4434587E1,1.8960968E1,2.2584911E1],"tree_param":{"num_deleted":"0","num_feature":"6","num_nodes":"15","size_leaf_vector":"1"}},{"base_weights":[4.7854576E-3,1.5142909E-1,-2.4699596E-1,-3.131595E-2,9.7267807E-1,-8.6483836E-1,-2.5368914E-2,-2.1529622E-1,6.9124836E-1,8.575736E-2,4.9825132E-1,-1.0246478E0,-2.8306432E-3,5.912017E-1,-3.7375554E-1,1.0377086E-3,-2.8924841E-2,-1.3630082E-3,5.9491068E-2,-8.679814E-3,4.3396942E-2,-1.216447E-2,-5.6573577E-2,5.2768015E-3,5.722189E-2,-3.1245936E-2,-7.441543E-3],"categories":[],"categories_nodes":[],"categories_segments":[],"categories_sizes":[],"default_left":[0,0,0,0,0,0,0,0,0,0,0,0,0,0,0,0,0,0,0,0,0,0,0,0,0,0,0],"id":17,"left_children":[1,3,5,7,9,11,13,15,17,-1,19,21,-1,23,25,-1,-1,-1,-1,-1,-1,-1,-1,-1,-1,-1,-1],"loss_changes":[3.278365E0,8.448506E0,4.4539914E0,6.376947E0,2.7526865E0,1.052732E0,5.6099954E0,3.2788396E0,3.523571E0,0E0,2.0526288E0,3.1913328E-1,0E0,2.4169948E0,8.4719896E-1,0E0,0E0,0E0,0E0,0E0,0E0,0E0,0E0,0E0,0E0,0E0,0E0],"parents":[2147483647,0,0,1,1,2,2,3,3,4,4,5,5,6,6,7,7,8,8,10,10,11,11,13,13,14,14],"right_children":[2,4,6,8,10,12,14,16,18,-1,20,22,-1,24,26,-1,-1,-1,-1,-1,-1,-1,-1,-1,-1,-1,-1],"split_conditions":[1.0005476E0,1.0000131E0,1.0011281E0,9.1953017E-4,5.0290653E1,1.680395E0,1.0021677E0,9.9929017E-1,3.4953156E1,8.575736E-2,7.310761E-1,3.5612604E-1,-2.8306432E-3,1.1304942E0,6.817289E1,1.0377086E-3,-2.8924841E-2,-1.3630082E-3,5.9491068E-2,-8.679814E-3,4.3396942E-2,-1.216447E-2,-5.6573577E-2,5.2768015E-3,5.722189E-2,-3.1245936E-2,-7.441543E-3],"split_indices":[3,3,3,4,2,5,3,3,2,0,5,5,0,5,2,0,0,0,0,0,0,0,0,0,0,0,0],"split_type":[0,0,0,0,0,0,0,0,0,0,0,0,0,0,0,0,0,0,0,0,0,0,0,0,0,0,0],"sum_hessian":[8.677829E1,5.50907E1,3.1687595E1,4.5849987E1,9.240711E0,7.5995817E0,2.4088015E1,3.7104443E1,8.745544E0,2.583064E0,6.657647E0,6.121425E0,1.4781564E0,8.445065E0,1.5642949E1,2.3060123E1,1.4044318E1,3.9698286E0,4.7757154E0,2.5513687E0,4.1062784E0,1.1304287E0,4.9909964E0,5.1312714E0,3.3137937E0,6.5502434E0,9.092706E0],"tree_param":{"num_deleted":"0","num_feature":"6","num_nodes":"27","size_leaf_vector":"1"}},{"base_weights":[5.554951E-3,8.054228E-1,-3.9858077E-2,5.667263E-2,3.2786304E-1,-8.5876244E-1,1.2993146E-2,4.2680826E-2,-1.8759599E-2,-4.8307505E-2,-1.3177584E-2,-2.2206356E-1,2.177727E-1,5.501927E-3,-2.6569236E-2,2.6488116E-2,-1.9564938E-3],"categories":[],"categories_nodes":[],"categories_segments":[],"categories_sizes":[],"default_left":[0,0,0,0,0,0,0,0,0,0,0,0,0,0,0,0,0],"id":18,"left_children":[1,3,5,-1,7,9,11,-1,-1,-1,-1,13,15,-1,-1,-1,-1],"loss_changes":[3.212671E0,3.7269998E-1,3.6384072E0,0E0,1.5554739E0,7.1091175E-2,3.8853202E0,0E0,0E0,0E0,0E0,3.9217916E0,3.4756267E0,0E0,0E0,0E0,0E0],"parents":[2147483647,0,0,1,1,2,2,4,4,5,5,6,6,11,11,12,12],"right_children":[2,4,6,-1,8,10,12,-1,-1,-1,-1,14,16,-1,-1,-1,-1],"split_conditions":[2.4135199E1,2.7296835E-4,2.9035639E1,5.667263E-2,9.956455E-1,9.976876E-1,7.944515E-1,4.2680826E-2,-1.8759599E-2,-4.8307505E-2,-1.3177584E-2,4.8852515E-1,3.6162856E-1,5.501927E-3,-2.6569236E-2,2.6488116E-2,-1.9564938E-3],"split_indices":[2,4,2,0,3,3,5,0,0,0,0,5,1,0,0,0,0],"split_type":[0,0,0,0,0,0,0,0,0,0,0,0,0,0,0,0,0],"sum_hessian":[8.656006E1,3.7513504E0,8.280871E1,1.4096522E0,2.341698E0,4.0959077E0,7.871281E1,1.2172613E0,1.1244367E0,2.9419212E0,1.1539862E0,3.6607918E1,4.2104885E1,1.7964558E1,1.8643358E1,1.8534256E1,2.357063E1],"tree_param":{"num_deleted":"0","num_feature":"6","num_nodes":"17","size_leaf_vector":"1"}},{"base_weights":[5.452612E-3,7.7862704E-1,-3.8711548E-2,4.960467E-2,1.0652727E-2,-4.2957492E-2,1.2383157E-2,-5.0936658E-2,7.8096306E-1,-9.97049E-3,1.3155698E-2,7.3683135E-2,-3.8957715E-2],"categories":[],"categories_nodes":[],"categories_segments":[],"categories_sizes":[],"default_left":[0,0,0,0,0,0,0,0,0,0,0,0,0],"id":19,"left_children":[1,3,5,-1,-1,-1,7,9,11,-1,-1,-1,-1],"loss_changes":[3.0156398E0,3.6471558E-1,3.5176754E0,0E0,0E0,0E0,3.9204931E0,3.5314126E0,7.7736235E0,0E0,0E0,0E0,0E0],"parents":[2147483647,0,0,1,1,2,2,6,6,7,7,8,8],"right_children":[2,4,6,-1,-1,-1,8,10,12,-1,-1,-1,-1],"split_conditions":[2.4135199E1,9.9615896E-1,9.967203E-1,4.960467E-2,1.0652727E-2,-4.2957492E-2,1.6611295E-3,1.8E1,1.0034448E0,-9.97049E-3,1.3155698E-2,7.3683135E-2,-3.8957715E-2],"split_indices":[2,3,3,0,0,0,4,0,3,0,0,0,0],"split_type":[0,0,0,0,0,0,0,0,0,0,0,0,0],"sum_hessian":[8.643178E1,3.7716608E0,8.266012E1,2.1906826E0,1.5809783E0,3.918887E0,7.874123E1,7.361052E1,5.1307106E0,5.022892E1,2.3381598E1,3.5914884E0,1.5392222E0],"tree_param":{"num_deleted":"0","num_feature":"6","num_nodes":"13","size_leaf_vector":"1"}},{"base_weights":[5.7512172E-3,8.588652E-2,-4.0763858E-1,-3.5510365E-2,6.814419E-1,-7.494066E-1,-1.44256E-1,-1.19701855E-1,6.921832E-1,-3.4443717E-2,1.0103798E0,-2.464941E-3,-4.9079444E-2,3.184182E-1,-4.4548723E-1,-1.1648245E-3,-3.2588437E-2,-2.3023045E-2,5.5306345E-2,3.763394E-2,-2.5199214E-2,4.915329E-3,6.637614E-2,4.263677E-2,-3.5307538E-2,-4.4345837E-2,1.9358591E-3],"categories":[],"categories_nodes":[],"categories_segments":[],"categories_sizes":[],"default_left":[0,0,0,0,0,0,0,0,0,0,0,0,0,0,0,0,0,0,0,0,0,0,0,0,0,0,0],"id":20,"left_children":[1,3,5,7,9,11,13,15,17,19,21,-1,-1,23,25,-1,-1,-1,-1,-1,-1,-1,-1,-1,-1,-1,-1],"loss_changes":[2.9257314E0,5.3684006E0,1.1829855E0,3.9029393E0,2.9937901E0,9.276035E-1,1.4434156E0,2.895217E0,3.6647542E0,2.198824E0,2.369442E0,0E0,0E0,2.9374163E0,1.3324047E0,0E0,0E0,0E0,0E0,0E0,0E0,0E0,0E0,0E0,0E0,0E0,0E0],"parents":[2147483647,0,0,1,1,2,2,3,3,4,4,5,5,6,6,7,7,8,8,9,9,10,10,13,13,14,14],"right_children":[2,4,6,8,10,12,14,16,18,20,22,-1,-1,24,26,-1,-1,-1,-1,-1,-1,-1,-1,-1,-1,-1,-1],"split_conditions":[1.002476E0,9.1953017E-4,6.817289E1,1.0017424E0,3.4953156E1,1.0034448E0,7.3067154E1,6.4249255E-4,5.551135E-5,2.3240772E1,1E1,-2.464941E-3,-4.9079444E-2,1.0355487E0,7.68084E1,-1.1648245E-3,-3.2588437E-2,-2.3023045E-2,5.5306345E-2,3.763394E-2,-2.5199214E-2,4.915329E-3,6.637614E-2,4.263677E-2,-3.5307538E-2,-4.4345837E-2,1.9358591E-3],"split_indices":[3,4,2,3,2,3,2,4,4,2,0,0,0,5,2,0,0,0,0,0,0,0,0,0,0,0,0],"split_type":[0,0,0,0,0,0,0,0,0,0,0,0,0,0,0,0,0,0,0,0,0,0,0,0,0,0,0],"sum_hessian":[8.626147E1,7.29185E1,1.3342959E1,6.1352833E1,1.1565672E1,5.0041747E0,8.338785E0,5.5739483E1,5.61335E0,3.9230378E0,7.642634E0,1.5481899E0,3.4559846E0,3.2657387E0,5.073046E0,4.807292E1,7.666562E0,1.4535372E0,4.1598125E0,1.2404974E0,2.6825404E0,2.309811E0,5.332823E0,2.256616E0,1.0091225E0,2.218673E0,2.854373E0],"tree_param":{"num_deleted":"0","num_feature":"6","num_nodes":"27","size_leaf_vector":"1"}},{"base_weights":[5.303992E-3,1.4297864E-1,-2.3325677E-1,-3.1554114E-2,9.1362906E-1,-8.399386E-1,-1.843088E-2,-2.0117407E-1,6.28374E-1,8.09786E-2,4.594075E-1,-9.9669844E-1,-3.2512695E-3,5.4315925E-1,-3.4602168E-1,1.4141541E-3,-2.7877534E-2,-1.5219491E-3,5.3622585E-2,-8.44076E-3,3.992331E-2,-5.4907706E-2,-9.937554E-3,9.194093E-3,6.284055E-2,-9.641807E-3,-3.8372215E-2],"categories":[],"categories_nodes":[],"categories_segments":[],"categories_sizes":[],"default_left":[0,0,0,0,0,0,0,0,0,0,0,0,0,0,0,0,0,0,0,0,0,0,0,0,0,0,0],"id":21,"left_children":[1,3,5,7,9,11,13,15,17,-1,19,21,-1,23,25,-1,-1,-1,-1,-1,-1,-1,-1,-1,-1,-1,-1],"loss_changes":[2.8931956E0,7.538359E0,4.186756E0,5.3301907E0,2.572462E0,9.566903E-1,4.7566423E0,3.101915E0,2.8845985E0,0E0,1.7726909E0,3.423171E-1,0E0,2.2145157E0,9.0396917E-1,0E0,0E0,0E0,0E0,0E0,0E0,0E0,0E0,0E0,0E0,0E0,0E0],"parents":[2147483647,0,0,1,1,2,2,3,3,4,4,5,5,6,6,7,7,8,8,10,10,11,11,13,13,14,14],"right_children":[2,4,6,8,10,12,14,16,18,-1,20,22,-1,24,26,-1,-1,-1,-1,-1,-1,-1,-1,-1,-1,-1,-1],"split_conditions":[1.0005476E0,1.0000131E0,1.0011281E0,9.1953017E-4,5.0290653E1,1.680395E0,1.0021677E0,9.9929017E-1,3.4953156E1,8.09786E-2,7.310761E-1,1.9E1,-3.2512695E-3,6.7063324E1,1.1244663E0,1.4141541E-3,-2.7877534E-2,-1.5219491E-3,5.3622585E-2,-8.44076E-3,3.992331E-2,-5.4907706E-2,-9.937554E-3,9.194093E-3,6.284055E-2,-9.641807E-3,-3.8372215E-2],"split_indices":[3,3,3,4,2,5,3,3,2,0,5,0,0,2,5,0,0,0,0,0,0,0,0,0,0,0,0],"split_type":[0,0,0,0,0,0,0,0,0,0,0,0,0,0,0,0,0,0,0,0,0,0,0,0,0,0,0],"sum_hessian":[8.60742E1,5.4831387E1,3.1242813E1,4.548846E1,9.342926E0,7.4091244E0,2.3833689E1,3.6740326E1,8.748133E0,2.6534235E0,6.6895022E0,5.924442E0,1.4846826E0,8.53834E0,1.5295349E1,2.2910059E1,1.3830268E1,3.897476E0,4.850657E0,2.5208564E0,4.168646E0,4.922361E0,1.002081E0,6.515747E0,2.0225928E0,1.2286747E1,3.0086024E0],"tree_param":{"num_deleted":"0","num_feature":"6","num_nodes":"27","size_leaf_vector":"1"}},{"base_weights":[5.985825E-3,7.391883E-1,-3.64197E-2,5.372898E-2,2.7610663E-1,-8.325377E-1,1.3885166E-2,3.9000977E-2,-1.9210616E-2,-4.6877287E-2,-1.2972297E-2,-2.0719911E-1,2.044841E-1,5.5890167E-3,-2.5486086E-2,2.4688374E-2,-1.8614111E-3],"categories":[],"categories_nodes":[],"categories_segments":[],"categories_sizes":[],"default_left":[0,0,0,0,0,0,0,0,0,0,0,0,0,0,0,0,0],"id":22,"left_children":[1,3,5,-1,7,9,11,-1,-1,-1,-1,13,15,-1,-1,-1,-1],"loss_changes":[2.726672E0,4.4793272E-1,3.3370812E0,0E0,1.4175858E0,5.4734707E-2,3.374913E0,0E0,0E0,0E0,0E0,3.638166E0,3.0232878E0,0E0,0E0,0E0,0E0],"parents":[2147483647,0,0,1,1,2,2,4,4,5,5,6,6,11,11,12,12],"right_children":[2,4,6,-1,8,10,12,-1,-1,-1,-1,14,16,-1,-1,-1,-1],"split_conditions":[2.4135199E1,2.7296835E-4,2.9035639E1,5.372898E-2,9.956455E-1,9.976876E-1,7.944515E-1,3.9000977E-2,-1.9210616E-2,-4.6877287E-2,-1.2972297E-2,4.8852515E-1,3.6162856E-1,5.5890167E-3,-2.5486086E-2,2.4688374E-2,-1.8614111E-3],"split_indices":[2,4,2,0,3,3,5,0,0,0,0,5,1,0,0,0,0],"split_type":[0,0,0,0,0,0,0,0,0,0,0,0,0,0,0,0,0],"sum_hessian":[8.58315E1,3.794374E0,8.2037125E1,1.4347479E0,2.359626E0,3.9514923E0,7.808563E1,1.2354972E0,1.1241288E0,2.8021152E0,1.1493771E0,3.6111355E1,4.1974277E1,1.7884481E1,1.8226871E1,1.8632252E1,2.3342026E1],"tree_param":{"num_deleted":"0","num_feature":"6","num_nodes":"17","size_leaf_vector":"1"}},{"base_weights":[5.806454E-3,1.3657491E-1,-2.2235128E-1,-3.0158728E-2,8.6266446E-1,-8.200923E-1,-1.3898772E-2,-1.9447958E-1,6.059247E-1,7.651921E-2,4.297396E-1,-9.746496E-1,-3.5598278E-3,5.2036846E-1,-3.303334E-1,1.3481276E-3,-2.708217E-2,-1.5156254E-3,5.153894E-2,-7.99618E-3,3.715049E-2,-1.09112775E-2,-5.4146226E-2,3.7781682E-3,5.1213898E-2,-8.9050885E-3,-3.7661836E-2],"categories":[],"categories_nodes":[],"categories_segments":[],"categories_sizes":[],"default_left":[0,0,0,0,0,0,0,0,0,0,0,0,0,0,0,0,0,0,0,0,0,0,0,0,0,0,0],"id":23,"left_children":[1,3,5,7,9,11,13,15,17,-1,19,21,-1,23,25,-1,-1,-1,-1,-1,-1,-1,-1,-1,-1,-1,-1],"loss_changes":[2.6169584E0,6.7726607E0,3.9715834E0,4.955858E0,2.3605204E0,8.8529253E-1,4.3507323E0,2.9006758E0,2.6655617E0,0E0,1.5457368E0,3.171854E-1,0E0,2.0704656E0,9.0462923E-1,0E0,0E0,0E0,0E0,0E0,0E0,0E0,0E0,0E0,0E0,0E0,0E0],"parents":[2147483647,0,0,1,1,2,2,3,3,4,4,5,5,6,6,7,7,8,8,10,10,11,11,13,13,14,14],"right_children":[2,4,6,8,10,12,14,16,18,-1,20,22,-1,24,26,-1,-1,-1,-1,-1,-1,-1,-1,-1,-1,-1,-1],"split_conditions":[1.0005476E0,1.0000131E0,1.0011281E0,9.1953017E-4,5.0290653E1,1.680395E0,1.0021677E0,9.9929017E-1,3.4953156E1,7.651921E-2,7.310761E-1,3.5612604E-1,-3.5598278E-3,1.1304942E0,1.1244663E0,1.3481276E-3,-2.708217E-2,-1.5156254E-3,5.153894E-2,-7.99618E-3,3.715049E-2,-1.09112775E-2,-5.4146226E-2,3.7781682E-3,5.1213898E-2,-8.9050885E-3,-3.7661836E-2],"split_indices":[3,3,3,4,2,5,3,3,2,0,5,5,0,5,5,0,0,0,0,0,0,0,0,0,0,0,0],"split_type":[0,0,0,0,0,0,0,0,0,0,0,0,0,0,0,0,0,0,0,0,0,0,0,0,0,0,0],"sum_hessian":[8.56941E1,5.4728115E1,3.096598E1,4.528718E1,9.440936E0,7.2480073E0,2.3717974E1,3.654157E1,8.745611E0,2.7163692E0,6.724567E0,5.758183E0,1.489824E0,8.582624E0,1.5135349E1,2.2873682E1,1.3667888E1,3.8735116E0,4.8720994E0,2.5029013E0,4.221666E0,1.0986098E0,4.659573E0,5.1694565E0,3.4131682E0,1.2174176E1,2.9611735E0],"tree_param":{"num_deleted":"0","num_feature":"6","num_nodes":"27","size_leaf_vector":"1"}},{"base_weights":[6.204887E-3,7.150221E-1,-3.5118163E-2,5.191208E-2,2.7013388E-1,-4.162674E-2,1.3357113E-2,-1.947966E-2,3.908297E-2,-4.4761106E-2,7.156485E-1,-9.06748E-3,1.19638555E-2,6.6554636E-2,-3.7190866E-2],"categories":[],"categories_nodes":[],"categories_segments":[],"categories_sizes":[],"default_left":[0,0,0,0,0,0,0,0,0,0,0,0,0,0,0],"id":24,"left_children":[1,3,5,-1,7,-1,9,-1,-1,11,13,-1,-1,-1,-1],"loss_changes":[2.556934E0,4.109757E-1,3.2051814E0,0E0,1.4435099E0,0E0,3.2515495E0,0E0,0E0,2.9062278E0,6.4580865E0,0E0,0E0,0E0,0E0],"parents":[2147483647,0,0,1,1,2,2,4,4,6,6,9,9,10,10],"right_children":[2,4,6,-1,8,-1,10,-1,-1,12,14,-1,-1,-1,-1],"split_conditions":[2.4135199E1,8.990836E-1,9.967203E-1,5.191208E-2,1.4045702E0,-4.162674E-2,1.6611295E-3,-1.947966E-2,3.908297E-2,1.8E1,1.0034448E0,-9.06748E-3,1.19638555E-2,6.6554636E-2,-3.7190866E-2],"split_indices":[2,5,3,0,5,0,4,0,0,0,3,0,0,0,0],"split_type":[0,0,0,0,0,0,0,0,0,0,0,0,0,0,0],"sum_hessian":[8.543843E1,3.808458E0,8.1629974E1,1.4333726E0,2.3750856E0,3.751042E0,7.787894E1,1.1413841E0,1.2337013E0,7.279134E1,5.0875936E0,4.939822E1,2.339312E1,3.6404188E0,1.4471745E0],"tree_param":{"num_deleted":"0","num_feature":"6","num_nodes":"15","size_leaf_vector":"1"}},{"base_weights":[6.571531E-3,6.92575E-1,-3.3610187E-2,5.05427E-2,2.5375125E-1,-8.107593E-1,1.4552366E-2,3.7000053E-2,-1.904291E-2,-4.569613E-2,-1.27832955E-2,-8.1874883E-1,5.9912827E-2,-1.0071828E-2,-4.7626633E-2,5.2845515E-2,-1.2297007E-4],"categories":[],"categories_nodes":[],"categories_segments":[],"categories_sizes":[],"default_left":[0,0,0,0,0,0,0,0,0,0,0,0,0,0,0,0,0],"id":25,"left_children":[1,3,5,-1,7,9,11,-1,-1,-1,-1,13,15,-1,-1,-1,-1],"loss_changes":[2.400727E0,4.1651368E-1,3.0971408E0,0E0,1.3189361E0,4.281926E-2,3.0201535E0,0E0,0E0,0E0,0E0,1.4887762E-1,4.6961174E0,0E0,0E0,0E0,0E0],"parents":[2147483647,0,0,1,1,2,2,4,4,5,5,6,6,11,11,12,12],"right_children":[2,4,6,-1,8,10,12,-1,-1,-1,-1,14,16,-1,-1,-1,-1],"split_conditions":[2.4135199E1,2.7296835E-4,2.9035639E1,5.05427E-2,9.956455E-1,9.976876E-1,3.498216E-5,3.7000053E-2,-1.904291E-2,-4.569613E-2,-1.27832955E-2,4.6166626E1,4.955156E-5,-1.0071828E-2,-4.7626633E-2,5.2845515E-2,-1.2297007E-4],"split_indices":[2,4,2,0,3,3,4,0,0,0,0,2,4,0,0,0,0],"split_type":[0,0,0,0,0,0,0,0,0,0,0,0,0,0,0,0,0],"sum_hessian":[8.524948E1,3.818692E0,8.143079E1,1.4577972E0,2.360895E0,3.82803E0,7.760276E1,1.2426668E0,1.1182281E0,2.6829739E0,1.1450564E0,3.1260142E0,7.4476746E1,1.003108E0,2.1229062E0,3.446146E0,7.10306E1],"tree_param":{"num_deleted":"0","num_feature":"6","num_nodes":"17","size_leaf_vector":"1"}},{"base_weights":[6.251802E-3,1.3106225E-1,-2.1257675E-1,-2.9248651E-2,8.196514E-1,-7.966066E-1,-1.2669932E-2,-3.3267865E-1,2.7930135E-1,7.2280906E-2,4.0874845E-1,-9.51165E-1,-3.2972365E-3,4.942294E-1,-3.172095E-1,-3.831385E-2,6.3729696E-3,2.7827486E-2,-1.0384574E-2,-7.744076E-3,3.5253108E-2,-1.0200668E-2,-5.303806E-2,7.8041363E-3,5.835224E-2,-8.38061E-3,-3.686243E-2],"categories":[],"categories_nodes":[],"categories_segments":[],"categories_sizes":[],"default_left":[0,0,0,0,0,0,0,0,0,0,0,0,0,0,0,0,0,0,0,0,0,0,0,0,0,0,0],"id":26,"left_children":[1,3,5,7,9,11,13,15,17,-1,19,21,-1,23,25,-1,-1,-1,-1,-1,-1,-1,-1,-1,-1,-1,-1],"loss_changes":[2.3816516E0,6.150378E0,3.6889029E0,4.3980484E0,2.113717E0,8.4783316E-1,3.9573245E0,4.814307E0,3.2673178E0,0E0,1.402249E0,3.2245445E-1,0E0,2.0089633E0,8.8110816E-1,0E0,0E0,0E0,0E0,0E0,0E0,0E0,0E0,0E0,0E0,0E0,0E0],"parents":[2147483647,0,0,1,1,2,2,3,3,4,4,5,5,6,6,7,7,8,8,10,10,11,11,13,13,14,14],"right_children":[2,4,6,8,10,12,14,16,18,-1,20,22,-1,24,26,-1,-1,-1,-1,-1,-1,-1,-1,-1,-1,-1,-1],"split_conditions":[1.0005476E0,1.0000131E0,1.0011281E0,3.4051662E-4,5.0290653E1,1.680395E0,1.0021677E0,1.8E1,1.4E1,7.2280906E-2,7.310761E-1,3.5612604E-1,-3.2972365E-3,6.7063324E1,1.1244663E0,-3.831385E-2,6.3729696E-3,2.7827486E-2,-1.0384574E-2,-7.744076E-3,3.5253108E-2,-1.0200668E-2,-5.303806E-2,7.8041363E-3,5.835224E-2,-8.38061E-3,-3.686243E-2],"split_indices":[3,3,3,4,2,5,3,0,0,0,5,5,0,2,5,0,0,0,0,0,0,0,0,0,0,0,0],"split_type":[0,0,0,0,0,0,0,0,0,0,0,0,0,0,0,0,0,0,0,0,0,0,0,0,0,0,0],"sum_hessian":[8.518128E1,5.4498653E1,3.0682629E1,4.498353E1,9.515122E0,7.063028E0,2.36196E1,2.264051E1,2.234302E1,2.7728426E0,6.7422795E0,5.5807376E0,1.4822903E0,8.6308565E0,1.4988743E1,1.1313874E1,1.1326636E1,1.4146493E1,8.196527E0,2.4876769E0,4.254603E0,1.0799413E0,4.5007963E0,6.563917E0,2.0669398E0,1.208404E1,2.9047034E0],"tree_param":{"num_deleted":"0","num_feature":"6","num_nodes":"27","size_leaf_vector":"1"}},{"base_weights":[6.2595597E-3,-8.077899E-2,3.0928785E-1,-1.0456034E-2,-7.0518833E-1,5.1537305E-1,-6.6177076E-1,-6.46661E-2,5.389406E-2,1.1096305E-2,-9.26555E-1,7.102986E-1,-8.073869E-2,-3.9930254E-2,-6.912844E-3,-1.3330988E-2,8.773061E-3,-1.3750957E-2,-5.15002E-2,-4.3844734E-3,5.0381493E-2,-2.5555888E-2,2.6393518E-2],"categories":[],"categories_nodes":[],"categories_segments":[],"categories_sizes":[],"default_left":[0,0,0,0,0,0,0,0,0,0,0,0,0,0,0,0,0,0,0,0,0,0,0],"id":27,"left_children":[1,3,5,7,9,11,13,15,-1,-1,17,19,21,-1,-1,-1,-1,-1,-1,-1,-1,-1,-1],"loss_changes":[2.2918482E0,2.9592905E0,4.220419E0,3.71218E0,1.606086E0,1.9808202E0,1.6406333E-1,2.9444425E0,0E0,0E0,1.010313E-1,3.07234E0,1.5734434E0,0E0,0E0,0E0,0E0,0E0,0E0,0E0,0E0,0E0,0E0],"parents":[2147483647,0,0,1,1,2,2,3,3,4,4,5,5,6,6,7,7,10,10,11,11,12,12],"right_children":[2,4,6,8,10,12,14,16,-1,-1,18,20,22,-1,-1,-1,-1,-1,-1,-1,-1,-1,-1],"split_conditions":[7.8926596E-4,6.4249255E-4,1.0041926E0,5.854054E-4,1E1,1.6E1,7.5452934E1,1.7E1,5.389406E-2,1.1096305E-2,6.767356E-4,1E1,4.2770977E1,-3.9930254E-2,-6.912844E-3,-1.3330988E-2,8.773061E-3,-1.3750957E-2,-5.15002E-2,-4.3844734E-3,5.0381493E-2,-2.5555888E-2,2.6393518E-2],"split_indices":[4,4,3,4,0,0,2,0,0,0,4,0,2,0,0,0,0,0,0,0,0,0,0],"split_type":[0,0,0,0,0,0,0,0,0,0,0,0,0,0,0,0,0,0,0,0,0,0,0],"sum_hessian":[8.4947E1,6.6561905E1,1.8385092E1,6.0738132E1,5.8237753E0,1.5553483E1,2.831608E0,5.8752262E1,1.9858668E0,1.1220299E0,4.701745E0,1.157648E1,3.9770036E0,1.8282701E0,1.003338E0,3.1852833E1,2.6899431E1,1.145532E0,3.5562131E0,3.3339055E0,8.242574E0,2.4234462E0,1.5535574E0],"tree_param":{"num_deleted":"0","num_feature":"6","num_nodes":"23","size_leaf_vector":"1"}},{"base_weights":[5.8035036E-3,6.61788E-1,-3.2838132E-2,4.892112E-2,2.308755E-1,-4.068469E-2,1.3695313E-2,3.472323E-2,-1.8706257E-2,-7.9950404E-1,5.7322368E-2,-4.6076242E-2,-1.0920714E-2,4.4241957E-2,1.01587364E-4],"categories":[],"categories_nodes":[],"categories_segments":[],"categories_sizes":[],"default_left":[0,0,0,0,0,0,0,0,0,0,0,0,0,0,0],"id":28,"left_children":[1,3,5,-1,7,-1,9,-1,-1,11,13,-1,-1,-1,-1],"loss_changes":[2.1961448E0,4.316516E-1,2.989312E0,0E0,1.1994259E0,0E0,2.8249917E0,0E0,0E0,8.6283445E-2,3.4425747E0,0E0,0E0,0E0,0E0],"parents":[2147483647,0,0,1,1,2,2,4,4,6,6,9,9,10,10],"right_children":[2,4,6,-1,8,-1,10,-1,-1,12,14,-1,-1,-1,-1],"split_conditions":[2.4135199E1,2.7296835E-4,9.967203E-1,4.892112E-2,9.956455E-1,-4.068469E-2,3.498216E-5,3.472323E-2,-1.8706257E-2,1.443795E0,4.955156E-5,-4.6076242E-2,-1.0920714E-2,4.4241957E-2,1.01587364E-4],"split_indices":[2,4,3,0,3,0,4,0,0,5,4,0,0,0,0],"split_type":[0,0,0,0,0,0,0,0,0,0,0,0,0,0,0],"sum_hessian":[8.478138E1,3.8192413E0,8.0962135E1,1.4691372E0,2.350104E0,3.6262105E0,7.733592E1,1.2468308E0,1.1032734E0,3.0555334E0,7.428039E1,2.041079E0,1.0144544E0,3.712543E0,7.056785E1],"tree_param":{"num_deleted":"0","num_feature":"6","num_nodes":"15","size_leaf_vector":"1"}},{"base_weights":[5.6063514E-3,7.367905E-2,-3.5516226E-1,1.5207864E-2,9.7781885E-1,-7.0511866E-1,-9.517312E-2,-4.570046E-2,5.3168535E-1,-1.8075223E-3,6.838568E-2,-1.8407833E-3,-4.697498E-2,-3.2424457E-2,1.8793659E-1,2.8853384E-3,-2.4701612E-2,-4.9412334E-3,5.8463164E-2,2.5028843E-2,-3.4958024E-2],"categories":[],"categories_nodes":[],"categories_segments":[],"categories_sizes":[],"default_left":[0,0,0,0,0,0,0,0,0,0,0,0,0,0,0,0,0,0,0,0,0],"id":29,"left_children":[1,3,5,7,9,11,13,15,17,-1,-1,-1,-1,-1,19,-1,-1,-1,-1,-1,-1],"loss_changes":[2.1310031E0,3.8406765E0,1.1863561E0,2.2111247E0,1.7945433E0,8.607905E-1,1.5411752E0,2.954049E0,3.0953326E0,0E0,0E0,0E0,0E0,0E0,2.2273052E0,0E0,0E0,0E0,0E0,0E0,0E0],"parents":[2147483647,0,0,1,1,2,2,3,3,4,4,5,5,6,6,7,7,8,8,14,14],"right_children":[2,4,6,8,10,12,14,16,18,-1,-1,-1,-1,-1,20,-1,-1,-1,-1,-1,-1],"split_conditions":[1.002476E0,1.814882E-3,6.817289E1,1.0017424E0,2.9035639E1,1.0034448E0,3.7637144E-1,1.0005476E0,6.2238686E1,-1.8075223E-3,6.838568E-2,-1.8407833E-3,-4.697498E-2,-3.2424457E-2,1.0135468E0,2.8853384E-3,-2.4701612E-2,-4.9412334E-3,5.8463164E-2,2.5028843E-2,-3.4958024E-2],"split_indices":[3,4,2,3,2,3,1,3,2,0,0,0,0,0,3,0,0,0,0,0,0],"split_type":[0,0,0,0,0,0,0,0,0,0,0,0,0,0,0,0,0,0,0,0,0],"sum_hessian":[8.470702E1,7.193039E1,1.27766285E1,6.8516235E1,3.4141595E0,4.716249E0,8.060379E0,6.210383E1,6.412405E0,1.2001926E0,2.213967E0,1.5250028E0,3.1912463E0,2.2914076E0,5.7689714E0,5.1172283E1,1.0931544E1,3.6489275E0,2.7634778E0,4.5878024E0,1.181169E0],"tree_param":{"num_deleted":"0","num_feature":"6","num_nodes":"21","size_leaf_vector":"1"}},{"base_weights":[5.3435974E-3,-4.1484207E-2,5.161049E-1,-1.1308241E-3,-8.3201545E-1,7.821643E-1,-2.084106E-2,-6.552746E-1,5.106366E-2,-1.2460574E-2,-4.7597364E-2,3.1790283E-1,5.5712204E-2,2.6895374E-3,-5.109885E-2,6.01059E-2,5.972307E-4,-3.5318986E-2,4.592265E-2],"categories":[],"categories_nodes":[],"categories_segments":[],"categories_sizes":[],"default_left":[0,0,0,0,0,0,0,0,0,0,0,0,0,0,0,0,0,0,0],"id":30,"left_children":[1,3,5,7,9,11,-1,13,15,-1,-1,17,-1,-1,-1,-1,-1,-1,-1],"loss_changes":[2.0677793E0,2.52873E0,2.1280084E0,2.6436224E0,3.1860113E-2,5.7026696E-1,0E0,1.5426333E0,3.2153833E0,0E0,0E0,3.047658E0,0E0,0E0,0E0,0E0,0E0,0E0,0E0],"parents":[2147483647,0,0,1,1,2,2,3,3,4,4,5,5,7,7,8,8,11,11],"right_children":[2,4,6,8,10,12,-1,14,16,-1,-1,18,-1,-1,-1,-1,-1,-1,-1],"split_conditions":[2.537926E0,2.0132105E0,1.0006002E0,4.0094623E-5,3.6776104E1,3.6038033E-4,-2.084106E-2,2.8642857E-1,4.955156E-5,-1.2460574E-2,-4.7597364E-2,9.9942005E-1,5.5712204E-2,2.6895374E-3,-5.109885E-2,6.01059E-2,5.972307E-4,-3.5318986E-2,4.592265E-2],"split_indices":[5,5,3,4,2,4,0,1,4,0,0,3,0,0,0,0,0,0,0],"split_type":[0,0,0,0,0,0,0,0,0,0,0,0,0,0,0,0,0,0,0],"sum_hessian":[8.455833E1,7.8298515E1,6.259814E0,7.54486E1,2.8499117E0,4.9964786E0,1.2633352E0,4.7214212E0,7.072718E1,1.0116723E0,1.8382393E0,2.8997777E0,2.096701E0,1.9002874E0,2.821134E0,1.3475187E0,6.937966E1,1.0066465E0,1.8931311E0],"tree_param":{"num_deleted":"0","num_feature":"6","num_nodes":"19","size_leaf_vector":"1"}},{"base_weights":[5.0115753E-3,6.399848E-1,-3.2547526E-2,4.7878314E-2,2.1861604E-1,-7.900841E-1,1.3579306E-2,-1.9421123E-2,3.479136E-2,-4.4424616E-2,-1.2992491E-2,-1.8772672E-1,1.8532664E-1,6.111804E-3,-2.332869E-2,5.3547848E-2,5.367012E-3],"categories":[],"categories_nodes":[],"categories_segments":[],"categories_sizes":[],"default_left":[0,0,0,0,0,0,0,0,0,0,0,0,0,0,0,0,0],"id":31,"left_children":[1,3,5,-1,7,9,11,-1,-1,-1,-1,13,15,-1,-1,-1,-1],"loss_changes":[2.0593555E0,4.359373E-1,2.8639543E0,0E0,1.246E0,1.4551401E-2,2.7298424E0,0E0,0E0,0E0,0E0,3.2017787E0,2.8250086E0,0E0,0E0,0E0,0E0],"parents":[2147483647,0,0,1,1,2,2,4,4,5,5,6,6,11,11,12,12],"right_children":[2,4,6,-1,8,10,12,-1,-1,-1,-1,14,16,-1,-1,-1,-1],"split_conditions":[2.4135199E1,8.990836E-1,2.9035639E1,4.7878314E-2,1.4045702E0,9.976876E-1,7.944515E-1,-1.9421123E-2,3.479136E-2,-4.4424616E-2,-1.2992491E-2,4.7576177E-1,8.237901E-1,6.111804E-3,-2.332869E-2,5.3547848E-2,5.367012E-3],"split_indices":[2,5,2,0,5,3,5,0,0,0,0,5,5,0,0,0,0],"split_type":[0,0,0,0,0,0,0,0,0,0,0,0,0,0,0,0,0],"sum_hessian":[8.447627E1,3.8220131E0,8.065426E1,1.4537911E0,2.368222E0,3.703501E0,7.695076E1,1.1242158E0,1.2440062E0,2.5538604E0,1.1496406E0,3.5383965E1,4.156679E1,1.7023027E1,1.8360939E1,2.3335767E0,3.9233215E1],"tree_param":{"num_deleted":"0","num_feature":"6","num_nodes":"17","size_leaf_vector":"1"}},{"base_weights":[5.256419E-3,7.112255E-2,-3.4571877E-1,-2.8975831E-2,5.573133E-1,-6.901917E-1,-9.36028E-2,6.1636545E-2,-6.104057E-1,8.324637E-2,9.739883E-1,-1.9675668E-3,-4.6182614E-2,-3.189793E-2,1.8215683E-1,-6.662824E-4,6.52607E-2,1.5380916E-2,-4.8988964E-2,-1.7996078E-2,3.244828E-2,-1.0961683E-2,7.0215516E-2,2.4159981E-2,-3.4351807E-2],"categories":[],"categories_nodes":[],"categories_segments":[],"categories_sizes":[],"default_left":[0,0,0,0,0,0,0,0,0,0,0,0,0,0,0,0,0,0,0,0,0,0,0,0,0],"id":32,"left_children":[1,3,5,7,9,11,13,15,17,19,21,-1,-1,-1,23,-1,-1,-1,-1,-1,-1,-1,-1,-1,-1],"loss_changes":[1.9976757E0,3.5539262E0,1.1214771E0,3.263675E0,2.3802786E0,8.167579E-1,1.4736012E0,5.0406475E0,3.1321068E0,1.9690605E0,3.6650677E0,0E0,0E0,0E0,2.1060443E0,0E0,0E0,0E0,0E0,0E0,0E0,0E0,0E0,0E0,0E0],"parents":[2147483647,0,0,1,1,2,2,3,3,4,4,5,5,6,6,7,7,8,8,9,9,10,10,14,14],"right_children":[2,4,6,8,10,12,14,16,18,20,22,-1,-1,-1,24,-1,-1,-1,-1,-1,-1,-1,-1,-1,-1],"split_conditions":[1.002476E0,9.1953017E-4,6.817289E1,6.4249255E-4,4.2770977E1,1.0034448E0,3.7637144E-1,5.78793E-4,1.1E1,1.814882E-3,1E1,-1.9675668E-3,-4.6182614E-2,-3.189793E-2,1.0135468E0,-6.662824E-4,6.52607E-2,1.5380916E-2,-4.8988964E-2,-1.7996078E-2,3.244828E-2,-1.0961683E-2,7.0215516E-2,2.4159981E-2,-3.4351807E-2],"split_indices":[3,4,2,4,2,3,1,4,0,4,0,0,0,0,3,0,0,0,0,0,0,0,0,0,0],"split_type":[0,0,0,0,0,0,0,0,0,0,0,0,0,0,0,0,0,0,0,0,0,0,0,0,0],"sum_hessian":[8.435082E1,7.16937E1,1.2657116E1,6.023313E1,1.146057E1,4.614544E0,8.042573E0,5.288527E1,7.3478627E0,5.9223146E0,5.5382557E0,1.526772E0,3.0877717E0,2.2626302E0,5.7799425E0,5.0811653E1,2.0736153E0,2.1561806E0,5.1916823E0,3.5248392E0,2.3974752E0,1.5979373E0,3.9403186E0,4.622896E0,1.1570461E0],"tree_param":{"num_deleted":"0","num_feature":"6","num_nodes":"25","size_leaf_vector":"1"}},{"base_weights":[5.073384E-3,6.957015E-1,-2.7532816E-2,5.6037612E-2,3.4154137E-3,-8.594278E-1,2.3104344E-2,-4.804381E-2,-1.4006928E-2,-2.7069608E-2,6.388249E-1,-8.270142E-3,1.2481957E-2,5.8662303E-2,-3.4968685E-2],"categories":[],"categories_nodes":[],"categories_segments":[],"categories_sizes":[],"default_left":[0,0,0,0,0,0,0,0,0,0,0,0,0,0,0],"id":33,"left_children":[1,3,5,-1,-1,7,9,-1,-1,11,13,-1,-1,-1,-1],"loss_changes":[1.9368759E0,9.574603E-1,3.4860365E0,0E0,0E0,9.8154545E-3,2.4435227E0,0E0,0E0,2.857711E0,5.081624E0,0E0,0E0,0E0,0E0],"parents":[2147483647,0,0,1,1,2,2,5,5,6,6,9,9,10,10],"right_children":[2,4,6,-1,-1,8,10,-1,-1,12,14,-1,-1,-1,-1],"split_conditions":[2.2427984E1,9.956455E-1,9.967203E-1,5.6037612E-2,3.4154137E-3,3.4953156E1,1.6611295E-3,-4.804381E-2,-1.4006928E-2,1.8E1,1.0034448E0,-8.270142E-3,1.2481957E-2,5.8662303E-2,-3.4968685E-2],"split_indices":[2,3,3,0,0,2,4,0,0,0,3,0,0,0,0],"split_type":[0,0,0,0,0,0,0,0,0,0,0,0,0,0,0],"sum_hessian":[8.4161064E1,2.877459E0,8.128361E1,1.2465645E0,1.6308945E0,3.7473764E0,7.7536224E1,2.6283665E0,1.1190099E0,7.257801E1,4.958215E0,4.8655987E1,2.3922026E1,3.6312919E0,1.3269233E0],"tree_param":{"num_deleted":"0","num_feature":"6","num_nodes":"15","size_leaf_vector":"1"}},{"base_weights":[5.087567E-3,6.839291E-2,-3.346396E-1,-2.6186008E-2,5.294734E-1,-4.4914633E-1,1.5153462E-2,5.9745356E-2,-5.869028E-1,7.411694E-2,9.281151E-1,-6.408617E-1,1.8211669E-1,-6.4749544E-4,6.2319245E-2,1.5215493E-2,-4.7764998E-2,-1.731963E-2,3.0491462E-2,-1.0403651E-2,6.686257E-2,-4.9817227E-2,-9.9997725E-3,-3.3694353E-2,4.1250467E-2],"categories":[],"categories_nodes":[],"categories_segments":[],"categories_sizes":[],"default_left":[0,0,0,0,0,0,0,0,0,0,0,0,0,0,0,0,0,0,0,0,0,0,0,0,0],"id":34,"left_children":[1,3,5,7,9,11,-1,13,15,17,19,21,23,-1,-1,-1,-1,-1,-1,-1,-1,-1,-1,-1,-1],"loss_changes":[1.8502611E0,3.1734052E0,1.1230785E0,2.9777617E0,2.1783454E0,1.5522013E0,0E0,4.6626916E0,2.9856381E0,1.7578149E0,3.306271E0,1.261287E0,2.5051036E0,0E0,0E0,0E0,0E0,0E0,0E0,0E0,0E0,0E0,0E0,0E0,0E0],"parents":[2147483647,0,0,1,1,2,2,3,3,4,4,5,5,7,7,8,8,9,9,10,10,11,11,12,12],"right_children":[2,4,6,8,10,12,-1,14,16,18,20,22,24,-1,-1,-1,-1,-1,-1,-1,-1,-1,-1,-1,-1],"split_conditions":[1.002476E0,9.1953017E-4,1.7528571E0,6.4249255E-4,4.2770977E1,7.68084E1,1.5153462E-2,5.78793E-4,1.1E1,1.814882E-3,1E1,7.6689446E-1,4.0167144E-1,-6.4749544E-4,6.2319245E-2,1.5215493E-2,-4.7764998E-2,-1.731963E-2,3.0491462E-2,-1.0403651E-2,6.686257E-2,-4.9817227E-2,-9.9997725E-3,-3.3694353E-2,4.1250467E-2],"split_indices":[3,4,1,4,2,2,0,4,0,4,0,5,1,0,0,0,0,0,0,0,0,0,0,0,0],"split_type":[0,0,0,0,0,0,0,0,0,0,0,0,0,0,0,0,0,0,0,0,0,0,0,0,0],"sum_hessian":[8.3968285E1,7.14524E1,1.2515881E1,6.0073135E1,1.1379265E1,1.0861315E1,1.6545656E0,5.2864895E1,7.2082396E0,5.865361E0,5.5139036E0,8.319474E0,2.5418403E0,5.0745255E1,2.1196415E0,2.1590672E0,5.049173E0,3.4839885E0,2.381373E0,1.5899582E0,3.9239457E0,3.9082072E0,4.4112673E0,1.0695443E0,1.472296E0],"tree_param":{"num_deleted":"0","num_feature":"6","num_nodes":"25","size_leaf_vector":"1"}},{"base_weights":[5.475973E-3,6.749329E-1,-2.6295366E-2,5.4283448E-2,3.4069195E-3,-8.438366E-1,2.2801476E-2,-4.73244E-2,-1.3523752E-2,3.503464E-1,-6.391609E-2,-1.1276691E-2,3.9975703E-2,-1.648938E-2,3.3969746E-3],"categories":[],"categories_nodes":[],"categories_segments":[],"categories_sizes":[],"default_left":[0,0,0,0,0,0,0,0,0,0,0,0,0,0,0],"id":35,"left_children":[1,3,5,-1,-1,7,9,-1,-1,11,13,-1,-1,-1,-1],"loss_changes":[1.8202488E0,8.9233947E-1,3.3053348E0,0E0,0E0,1.8523693E-2,2.2436955E0,0E0,0E0,4.4547243E0,2.2197344E0,0E0,0E0,0E0,0E0],"parents":[2147483647,0,0,1,1,2,2,5,5,6,6,9,9,10,10],"right_children":[2,4,6,-1,-1,8,10,-1,-1,12,14,-1,-1,-1,-1],"split_conditions":[2.2427984E1,9.956455E-1,9.967203E-1,5.4283448E-2,3.4069195E-3,3.4953156E1,9.9873376E-1,-4.73244E-2,-1.3523752E-2,3.4051662E-4,9.9982065E-1,-1.1276691E-2,3.9975703E-2,-1.648938E-2,3.3969746E-3],"split_indices":[2,3,3,0,0,2,3,0,0,4,3,0,0,0,0],"split_type":[0,0,0,0,0,0,0,0,0,0,0,0,0,0,0],"sum_hessian":[8.374565E1,2.8771656E0,8.0868484E1,1.2451459E0,1.6320195E0,3.6643293E0,7.7204155E1,2.5559561E0,1.1083732E0,1.5524764E1,6.167939E1,7.0209947E0,8.50377E0,1.9950464E1,4.1728928E1],"tree_param":{"num_deleted":"0","num_feature":"6","num_nodes":"15","size_leaf_vector":"1"}},{"base_weights":[5.3004343E-3,5.909609E-1,-2.969397E-2,4.585922E-2,1.716019E-1,-3.8312566E-2,1.403374E-2,3.0000461E-2,-1.8416425E-2,-7.6687753E-1,5.5257346E-2,-1.079896E-2,-4.415758E-2,4.6577986E-2,-8.740695E-5],"categories":[],"categories_nodes":[],"categories_segments":[],"categories_sizes":[],"default_left":[0,0,0,0,0,0,0,0,0,0,0,0,0,0,0],"id":36,"left_children":[1,3,5,-1,7,-1,9,-1,-1,11,13,-1,-1,-1,-1],"loss_changes":[1.752268E0,5.0203633E-1,2.6138523E0,0E0,9.933909E-1,0E0,2.5299883E0,0E0,0E0,6.1757565E-2,3.7148316E0,0E0,0E0,0E0,0E0],"parents":[2147483647,0,0,1,1,2,2,4,4,6,6,9,9,10,10],"right_children":[2,4,6,-1,8,-1,10,-1,-1,12,14,-1,-1,-1,-1],"split_conditions":[2.4135199E1,2.7296835E-4,2.9035639E1,4.585922E-2,9.956455E-1,-3.8312566E-2,3.498216E-5,3.0000461E-2,-1.8416425E-2,9.997529E-1,4.955156E-5,-1.079896E-2,-4.415758E-2,4.6577986E-2,-8.740695E-5],"split_indices":[2,4,2,0,3,0,4,0,0,3,4,0,0,0,0],"split_type":[0,0,0,0,0,0,0,0,0,0,0,0,0,0,0],"sum_hessian":[8.364179E1,3.8202038E0,7.982159E1,1.481005E0,2.3391988E0,3.547283E0,7.627431E1,1.2422585E0,1.0969403E0,2.9419115E0,7.333239E1,1.0107152E0,1.9311962E0,3.5420194E0,6.9790375E1],"tree_param":{"num_deleted":"0","num_feature":"6","num_nodes":"15","size_leaf_vector":"1"}},{"base_weights":[5.123942E-3,6.699758E-2,-3.2746527E-1,-2.275811E-2,5.0597703E-1,-4.3976936E-1,1.4488086E-2,-9.6750036E-2,5.885952E-1,6.607791E-2,8.8886356E-1,-6.276751E-1,1.6905175E-1,-7.482473E-4,-2.8502932E-2,-2.4713611E-2,4.893549E-2,2.2504142E-2,-2.4369044E-2,-1.0188484E-2,6.420499E-2,-4.369147E-3,-4.471599E-2,-3.333822E-2,3.9384227E-2],"categories":[],"categories_nodes":[],"categories_segments":[],"categories_sizes":[],"default_left":[0,0,0,0,0,0,0,0,0,0,0,0,0,0,0,0,0,0,0,0,0,0,0,0,0],"id":37,"left_children":[1,3,5,7,9,11,-1,13,15,17,19,21,23,-1,-1,-1,-1,-1,-1,-1,-1,-1,-1,-1,-1],"loss_changes":[1.7618634E0,2.8530488E0,1.0584998E0,2.8087378E0,2.0105398E0,1.4516385E0,0E0,2.125299E0,3.3178623E0,1.6640279E0,3.063541E0,1.2472272E0,2.3668432E0,0E0,0E0,0E0,0E0,0E0,0E0,0E0,0E0,0E0,0E0,0E0,0E0],"parents":[2147483647,0,0,1,1,2,2,3,3,4,4,5,5,7,7,8,8,9,9,10,10,11,11,12,12],"right_children":[2,4,6,8,10,12,-1,14,16,18,20,22,24,-1,-1,-1,-1,-1,-1,-1,-1,-1,-1,-1,-1],"split_conditions":[1.002476E0,9.1953017E-4,1.7528571E0,1.0017424E0,4.2770977E1,7.68084E1,1.4488086E-2,6.4249255E-4,5.551135E-5,7.117929E-1,1E1,4.6735E-1,4.0167144E-1,-7.482473E-4,-2.8502932E-2,-2.4713611E-2,4.893549E-2,2.2504142E-2,-2.4369044E-2,-1.0188484E-2,6.420499E-2,-4.369147E-3,-4.471599E-2,-3.333822E-2,3.9384227E-2],"split_indices":[3,4,1,3,2,2,0,4,4,1,0,1,1,0,0,0,0,0,0,0,0,0,0,0,0],"split_type":[0,0,0,0,0,0,0,0,0,0,0,0,0,0,0,0,0,0,0,0,0,0,0,0,0],"sum_hessian":[8.355056E1,7.11185E1,1.2432058E1,5.9832947E1,1.1285553E1,1.0761515E1,1.6705437E0,5.412407E1,5.708876E0,5.79744E0,5.4881124E0,8.199779E0,2.5617368E0,4.702929E1,7.0947814E0,1.4412655E0,4.267611E0,3.532958E0,2.264482E0,1.5865419E0,3.9015706E0,3.1482697E0,5.0515084E0,1.056512E0,1.5052248E0],"tree_param":{"num_deleted":"0","num_feature":"6","num_nodes":"25","size_leaf_vector":"1"}},{"base_weights":[5.025449E-3,1.109267E-1,-1.8370217E-1,-4.124252E-2,7.5324506E-1,-7.467211E-1,3.5231977E-3,-3.1670648E-1,2.397356E-1,6.837088E-2,3.5136488E-1,-9.0739995E-1,-1.523587E-3,4.4817096E-1,-2.745139E-1,7.00283E-3,-3.5360653E-2,-3.3233218E-2,1.8248295E-2,-9.079793E-3,3.174263E-2,-8.3148675E-3,-5.1110685E-2,3.0809697E-3,4.899088E-2,-6.177746E-3,-3.5303205E-2],"categories":[],"categories_nodes":[],"categories_segments":[],"categories_sizes":[],"default_left":[0,0,0,0,0,0,0,0,0,0,0,0,0,0,0,0,0,0,0,0,0,0,0,0,0,0,0],"id":38,"left_children":[1,3,5,7,9,11,13,15,17,-1,19,21,-1,23,25,-1,-1,-1,-1,-1,-1,-1,-1,-1,-1,-1,-1],"loss_changes":[1.7056664E0,5.3712926E0,3.2371738E0,3.568181E0,2.1152601E0,8.541627E-1,3.0929258E0,4.2397738E0,2.836826E0,0E0,1.2790728E0,3.5956E-1,0E0,1.9170454E0,9.1605973E-1,0E0,0E0,0E0,0E0,0E0,0E0,0E0,0E0,0E0,0E0,0E0,0E0],"parents":[2147483647,0,0,1,1,2,2,3,3,4,4,5,5,6,6,7,7,8,8,10,10,11,11,13,13,14,14],"right_children":[2,4,6,8,10,12,14,16,18,-1,20,22,-1,24,26,-1,-1,-1,-1,-1,-1,-1,-1,-1,-1,-1,-1],"split_conditions":[1.0005476E0,1.0000131E0,1.0011281E0,3.4051662E-4,5.0290653E1,1.680395E0,1.0021677E0,1.10991896E-4,2.6009285E-1,6.837088E-2,7.310761E-1,3.5612604E-1,-1.523587E-3,1.1530089E0,1.1244663E0,7.00283E-3,-3.5360653E-2,-3.3233218E-2,1.8248295E-2,-9.079793E-3,3.174263E-2,-8.3148675E-3,-5.1110685E-2,3.0809697E-3,4.899088E-2,-6.177746E-3,-3.5303205E-2],"split_indices":[3,3,3,4,2,5,3,4,1,0,5,5,0,5,5,0,0,0,0,0,0,0,0,0,0,0,0],"split_type":[0,0,0,0,0,0,0,0,0,0,0,0,0,0,0,0,0,0,0,0,0,0,0,0,0,0,0],"sum_hessian":[8.3321396E1,5.363646E1,2.9684938E1,4.4119957E1,9.516502E0,6.6622005E0,2.3022738E1,2.2214376E1,2.190558E1,2.8137872E0,6.7027154E0,5.223513E0,1.4386873E0,8.622073E0,1.4400664E1,1.0534202E1,1.1680176E1,2.140388E0,1.9765192E1,2.452119E0,4.250596E0,1.0291216E0,4.1943913E0,5.6383924E0,2.98368E0,1.1621645E1,2.7790198E0],"tree_param":{"num_deleted":"0","num_feature":"6","num_nodes":"27","size_leaf_vector":"1"}},{"base_weights":[4.618079E-3,6.437287E-1,-2.586223E-2,-1.5328316E-3,4.7685664E-2,-8.2860863E-1,2.1447519E-2,-4.6561178E-2,-1.3208932E-2,3.3636996E-1,-6.2226E-2,-1.0087687E-2,3.7327822E-2,-1.5691508E-2,3.0928177E-3],"categories":[],"categories_nodes":[],"categories_segments":[],"categories_sizes":[],"default_left":[0,0,0,0,0,0,0,0,0,0,0,0,0,0,0],"id":39,"left_children":[1,3,5,-1,-1,7,9,-1,-1,11,13,-1,-1,-1,-1],"loss_changes":[1.6546885E0,8.374908E-1,3.1023502E0,0E0,0E0,1.7264843E-2,2.0677235E0,0E0,0E0,3.7842364E0,1.961693E0,0E0,0E0,0E0,0E0],"parents":[2147483647,0,0,1,1,2,2,5,5,6,6,9,9,10,10],"right_children":[2,4,6,-1,-1,8,10,-1,-1,12,14,-1,-1,-1,-1],"split_conditions":[2.2427984E1,3.038214E-1,9.967203E-1,-1.5328316E-3,4.7685664E-2,3.4953156E1,9.9873376E-1,-4.6561178E-2,-1.3208932E-2,3.4051662E-4,9.9982065E-1,-1.0087687E-2,3.7327822E-2,-1.5691508E-2,3.0928177E-3],"split_indices":[2,1,3,0,0,2,3,0,0,4,3,0,0,0,0],"split_type":[0,0,0,0,0,0,0,0,0,0,0,0,0,0,0],"sum_hessian":[8.308706E1,2.8663332E0,8.0220726E1,1.1863904E0,1.679943E0,3.545558E0,7.667516E1,2.4502485E0,1.0953094E0,1.5461734E1,6.1213432E1,6.907684E0,8.5540495E0,1.9712605E1,4.1500828E1],"tree_param":{"num_deleted":"0","num_feature":"6","num_nodes":"15","size_leaf_vector":"1"}},{"base_weights":[4.3557608E-3,1.0778617E-1,-1.8013367E-1,-3.8286828E-2,7.177824E-1,-7.3179454E-1,7.5756223E-4,-2.8841987E-1,2.2821899E-1,6.508769E-2,3.3337888E-1,-8.918573E-1,-1.5693129E-3,4.2647046E-1,-2.6755774E-1,-3.64445E-2,7.4477694E-3,2.4005502E-2,-1.1947644E-2,-8.882823E-3,3.0212319E-2,-8.194439E-3,-5.0335832E-2,2.8134796E-3,4.668131E-2,-6.044563E-3,-3.4558587E-2],"categories":[],"categories_nodes":[],"categories_segments":[],"categories_sizes":[],"default_left":[0,0,0,0,0,0,0,0,0,0,0,0,0,0,0,0,0,0,0,0,0,0,0,0,0,0,0],"id":40,"left_children":[1,3,5,7,9,11,13,15,17,-1,19,21,-1,23,25,-1,-1,-1,-1,-1,-1,-1,-1,-1,-1,-1,-1],"loss_changes":[1.6218675E0,4.8779364E0,3.0483627E0,3.0568233E0,1.9382634E0,8.176341E-1,2.8554173E0,4.6525865E0,2.7367196E0,0E0,1.1755619E0,3.4533024E-1,0E0,1.7618254E0,8.692336E-1,0E0,0E0,0E0,0E0,0E0,0E0,0E0,0E0,0E0,0E0,0E0,0E0],"parents":[2147483647,0,0,1,1,2,2,3,3,4,4,5,5,6,6,7,7,8,8,10,10,11,11,13,13,14,14],"right_children":[2,4,6,8,10,12,14,16,18,-1,20,22,-1,24,26,-1,-1,-1,-1,-1,-1,-1,-1,-1,-1,-1,-1],"split_conditions":[1.0005476E0,1.0000131E0,1.0011281E0,3.6038033E-4,5.0290653E1,1.680395E0,1.0021677E0,1.8E1,1.4E1,6.508769E-2,7.310761E-1,3.5612604E-1,-1.5693129E-3,1.1530089E0,1.1244663E0,-3.64445E-2,7.4477694E-3,2.4005502E-2,-1.1947644E-2,-8.882823E-3,3.0212319E-2,-8.194439E-3,-5.0335832E-2,2.8134796E-3,4.668131E-2,-6.044563E-3,-3.4558587E-2],"split_indices":[3,3,3,4,2,5,3,0,0,0,5,5,0,5,5,0,0,0,0,0,0,0,0,0,0,0,0],"split_type":[0,0,0,0,0,0,0,0,0,0,0,0,0,0,0,0,0,0,0,0,0,0,0,0,0,0,0],"sum_hessian":[8.297793E1,5.3435894E1,2.9542034E1,4.386821E1,9.567685E0,6.5428686E0,2.2999166E1,2.2586802E1,2.1281408E1,2.8506534E0,6.717032E0,5.103286E0,1.4395826E0,8.663731E0,1.4335436E1,1.0921505E1,1.1665296E1,1.3808439E1,7.4729686E0,2.446131E0,4.2709007E0,1.0261973E0,4.0770884E0,5.650252E0,3.0134785E0,1.1603407E1,2.7320292E0],"tree_param":{"num_deleted":"0","num_feature":"6","num_nodes":"27","size_leaf_vector":"1"}},{"base_weights":[4.2404435E-3,5.657857E-1,-2.9496137E-2,4.4503786E-2,1.5074708E-1,-7.438056E-1,1.2146749E-2,2.7830783E-2,-1.7943788E-2,-4.2044304E-2,-1.2240249E-2,-7.4602205E-1,5.1707946E-2,-1.034975E-2,-4.3122154E-2,4.3868758E-2,-1.489341E-4],"categories":[],"categories_nodes":[],"categories_segments":[],"categories_sizes":[],"default_left":[0,0,0,0,0,0,0,0,0,0,0,0,0,0,0,0,0],"id":41,"left_children":[1,3,5,-1,7,9,11,-1,-1,-1,-1,13,15,-1,-1,-1,-1],"loss_changes":[1.6024145E0,5.1096606E-1,2.3860288E0,0E0,8.836442E-1,8.171082E-3,2.332879E0,0E0,0E0,0E0,0E0,6.359768E-2,3.327392E0,0E0,0E0,0E0,0E0],"parents":[2147483647,0,0,1,1,2,2,4,4,5,5,6,6,11,11,12,12],"right_children":[2,4,6,-1,8,10,12,-1,-1,-1,-1,14,16,-1,-1,-1,-1],"split_conditions":[2.4135199E1,2.7296835E-4,2.9035639E1,4.4503786E-2,9.956455E-1,9.976876E-1,3.498216E-5,2.7830783E-2,-1.7943788E-2,-4.2044304E-2,-1.2240249E-2,9.997529E-1,4.955156E-5,-1.034975E-2,-4.3122154E-2,4.3868758E-2,-1.489341E-4],"split_indices":[2,4,2,0,3,3,4,0,0,0,0,3,4,0,0,0,0],"split_type":[0,0,0,0,0,0,0,0,0,0,0,0,0,0,0,0,0],"sum_hessian":[8.270324E1,3.7932878E0,7.890996E1,1.4869221E0,2.3063657E0,3.4180403E0,7.549191E1,1.2325444E0,1.0738213E0,2.2878075E0,1.1302329E0,2.8582225E0,7.263369E1,1.0011063E0,1.8571162E0,3.5774288E0,6.905626E1],"tree_param":{"num_deleted":"0","num_feature":"6","num_nodes":"17","size_leaf_vector":"1"}},{"base_weights":[3.8793702E-3,5.494299E-1,-2.889193E-2,4.3583386E-2,1.4670368E-1,-7.3076504E-1,1.1391661E-2,-2.0623367E-2,3.0267034E-2,-4.1395932E-2,-1.1954459E-2,-7.3161197E-1,4.9684245E-2,-4.2432044E-2,-1.1453325E-2,4.1820846E-2,-1.4160268E-4],"categories":[],"categories_nodes":[],"categories_segments":[],"categories_sizes":[],"default_left":[0,0,0,0,0,0,0,0,0,0,0,0,0,0,0,0,0],"id":42,"left_children":[1,3,5,-1,7,9,11,-1,-1,-1,-1,13,15,-1,-1,-1,-1],"loss_changes":[1.5107467E0,4.9348044E-1,2.2653034E0,0E0,1.1038302E0,9.758949E-3,2.2122412E0,0E0,0E0,0E0,0E0,2.9788971E-2,3.0459445E0,0E0,0E0,0E0,0E0],"parents":[2147483647,0,0,1,1,2,2,4,4,5,5,6,6,11,11,12,12],"right_children":[2,4,6,-1,8,10,12,-1,-1,-1,-1,14,16,-1,-1,-1,-1],"split_conditions":[2.4135199E1,8.990836E-1,2.9035639E1,4.3583386E-2,1.4045702E0,9.976876E-1,3.498216E-5,-2.0623367E-2,3.0267034E-2,-4.1395932E-2,-1.1954459E-2,1.2891048E0,4.955156E-5,-4.2432044E-2,-1.1453325E-2,4.1820846E-2,-1.4160268E-4],"split_indices":[2,5,2,0,5,3,4,0,0,0,0,5,4,0,0,0,0],"split_type":[0,0,0,0,0,0,0,0,0,0,0,0,0,0,0,0,0],"sum_hessian":[8.261334E1,3.7880085E0,7.882533E1,1.4574361E0,2.3305724E0,3.3481958E0,7.5477135E1,1.0955468E0,1.2350255E0,2.224726E0,1.1234697E0,2.8118594E0,7.2665276E1,1.7221371E0,1.0897224E0,3.6130052E0,6.905227E1],"tree_param":{"num_deleted":"0","num_feature":"6","num_nodes":"17","size_leaf_vector":"1"}},{"base_weights":[3.5074377E-3,1.0349726E-1,-1.752243E-1,-3.688344E-2,6.841795E-1,-7.12583E-1,-2.6207021E-3,-2.8811562E-1,2.137936E-1,6.701314E-2,3.5689402E-1,-8.7169856E-1,-1.5443978E-3,4.048823E-1,-2.6121622E-1,7.1427347E-3,-3.3384126E-2,-3.2497972E-2,1.66401E-2,3.7000563E-2,-3.3452276E-3,-7.451126E-3,-4.94381E-2,4.902399E-3,5.128015E-2,-1.7507924E-2,1.4485076E-2],"categories":[],"categories_nodes":[],"categories_segments":[],"categories_sizes":[],"default_left":[0,0,0,0,0,0,0,0,0,0,0,0,0,0,0,0,0,0,0,0,0,0,0,0,0,0,0],"id":43,"left_children":[1,3,5,7,9,11,13,15,17,-1,19,21,-1,23,25,-1,-1,-1,-1,-1,-1,-1,-1,-1,-1,-1,-1],"loss_changes":[1.5108215E0,4.4425263E0,2.8117127E0,2.869661E0,1.7979736E0,7.72624E-1,2.6310315E0,3.8079188E0,2.5695317E0,0E0,1.4191631E0,3.5513544E-1,0E0,1.746029E0,8.495871E-1,0E0,0E0,0E0,0E0,0E0,0E0,0E0,0E0,0E0,0E0,0E0,0E0],"parents":[2147483647,0,0,1,1,2,2,3,3,4,4,5,5,6,6,7,7,8,8,10,10,11,11,13,13,14,14],"right_children":[2,4,6,8,10,12,14,16,18,-1,20,22,-1,24,26,-1,-1,-1,-1,-1,-1,-1,-1,-1,-1,-1,-1],"split_conditions":[1.0005476E0,1.0000131E0,1.0011281E0,3.4051662E-4,4.9058693E1,1.680395E0,1.0021677E0,1.10991896E-4,2.6009285E-1,6.701314E-2,2.909E-1,3.5612604E-1,-1.5443978E-3,6.7063324E1,1.7528571E0,7.1427347E-3,-3.3384126E-2,-3.2497972E-2,1.66401E-2,3.7000563E-2,-3.3452276E-3,-7.451126E-3,-4.94381E-2,4.902399E-3,5.128015E-2,-1.7507924E-2,1.4485076E-2],"split_indices":[3,3,3,4,2,5,3,4,1,0,1,5,0,2,1,0,0,0,0,0,0,0,0,0,0,0,0],"split_type":[0,0,0,0,0,0,0,0,0,0,0,0,0,0,0,0,0,0,0,0,0,0,0,0,0,0,0],"sum_hessian":[8.252395E1,5.3188866E1,2.9335085E1,4.3587914E1,9.600952E0,6.37127E0,2.2963814E1,2.169526E1,2.1892653E1,2.1652865E0,7.435666E0,4.9395905E0,1.4316802E0,8.695489E0,1.4268325E1,1.0451728E1,1.1243531E1,2.1108458E0,1.9781807E1,3.5133924E0,3.9222736E0,1.0054681E0,3.934122E0,6.5939364E0,2.101553E0,1.2598745E1,1.6695795E0],"tree_param":{"num_deleted":"0","num_feature":"6","num_nodes":"27","size_leaf_vector":"1"}},{"base_weights":[3.8642413E-3,6.0222626E-1,-2.4762644E-2,-2.536076E-3,4.5575067E-2,-8.127589E-1,2.0567067E-2,-4.5805108E-2,-1.2868402E-2,3.283218E-1,-6.1343107E-2,-8.290811E-3,3.4535006E-2,-1.5022705E-2,2.8126254E-3],"categories":[],"categories_nodes":[],"categories_segments":[],"categories_sizes":[],"default_left":[0,0,0,0,0,0,0,0,0,0,0,0,0,0,0],"id":44,"left_children":[1,3,5,-1,-1,7,9,-1,-1,11,13,-1,-1,-1,-1],"loss_changes":[1.4409688E0,8.2181025E-1,2.8890078E0,0E0,0E0,1.669693E-2,1.961511E0,0E0,0E0,3.0415487E0,1.750884E0,0E0,0E0,0E0,0E0],"parents":[2147483647,0,0,1,1,2,2,5,5,6,6,9,9,10,10],"right_children":[2,4,6,-1,-1,8,10,-1,-1,12,14,-1,-1,-1,-1],"split_conditions":[2.2427984E1,3.038214E-1,9.967203E-1,-2.536076E-3,4.5575067E-2,3.4953156E1,9.9873376E-1,-4.5805108E-2,-1.2868402E-2,3.4051662E-4,9.9982065E-1,-8.290811E-3,3.4535006E-2,-1.5022705E-2,2.8126254E-3],"split_indices":[2,1,3,0,0,2,3,0,0,4,3,0,0,0,0],"split_type":[0,0,0,0,0,0,0,0,0,0,0,0,0,0,0],"sum_hessian":[8.225273E1,2.8406243E0,7.94121E1,1.1817304E0,1.658894E0,3.398788E0,7.601331E1,2.3179982E0,1.0807899E0,1.5346139E1,6.0667175E1,6.722195E0,8.623944E0,1.9487541E1,4.1179634E1],"tree_param":{"num_deleted":"0","num_feature":"6","num_nodes":"15","size_leaf_vector":"1"}},{"base_weights":[3.6145186E-3,1.00835055E-1,-1.7041272E-1,-3.4309085E-2,6.546868E-1,-6.985144E-1,-3.0269362E-3,-2.689102E-1,1.9681889E-1,6.416101E-2,3.4003416E-1,-8.570916E-1,-1.5812776E-3,4.0382218E-1,-2.4215382E-1,-3.375579E-2,6.526712E-3,-3.1687267E-2,1.55141475E-2,3.656816E-2,-3.0802337E-3,-7.3444615E-3,-4.871744E-2,2.9160598E-2,-2.278403E-2,-2.7361292E-2,3.7454881E-6],"categories":[],"categories_nodes":[],"categories_segments":[],"categories_sizes":[],"default_left":[0,0,0,0,0,0,0,0,0,0,0,0,0,0,0,0,0,0,0,0,0,0,0,0,0,0,0],"id":45,"left_children":[1,3,5,7,9,11,13,15,17,-1,19,21,-1,23,25,-1,-1,-1,-1,-1,-1,-1,-1,-1,-1,-1,-1],"loss_changes":[1.4238034E0,4.0619726E0,2.66483E0,2.4567752E0,1.6670341E0,7.4032784E-1,2.4242823E0,3.726513E0,2.3555717E0,0E0,1.3728409E0,3.4191608E-1,0E0,1.6884465E0,1.1592118E0,0E0,0E0,0E0,0E0,0E0,0E0,0E0,0E0,0E0,0E0,0E0,0E0],"parents":[2147483647,0,0,1,1,2,2,3,3,4,4,5,5,6,6,7,7,8,8,10,10,11,11,13,13,14,14],"right_children":[2,4,6,8,10,12,14,16,18,-1,20,22,-1,24,26,-1,-1,-1,-1,-1,-1,-1,-1,-1,-1,-1,-1],"split_conditions":[1.0005476E0,1.0000131E0,1.0011281E0,3.4051662E-4,4.9058693E1,1.680395E0,1.0020715E0,1.8E1,2.6009285E-1,6.416101E-2,2.4269977E-4,3.5612604E-1,-1.5812776E-3,1.9587504E0,6.817289E1,-3.375579E-2,6.526712E-3,-3.1687267E-2,1.55141475E-2,3.656816E-2,-3.0802337E-3,-7.3444615E-3,-4.871744E-2,2.9160598E-2,-2.278403E-2,-2.7361292E-2,3.7454881E-6],"split_indices":[3,3,3,4,2,5,3,0,1,0,4,5,0,5,2,0,0,0,0,0,0,0,0,0,0,0,0],"split_type":[0,0,0,0,0,0,0,0,0,0,0,0,0,0,0,0,0,0,0,0,0,0,0,0,0,0,0],"sum_hessian":[8.2138374E1,5.29682E1,2.9170174E1,4.333273E1,9.635469E0,6.2568254E0,2.291335E1,2.1423664E1,2.1909065E1,2.187542E0,7.447928E0,4.8244314E0,1.432394E0,8.227089E0,1.4686259E1,1.0279763E1,1.1143901E1,2.0821517E0,1.9826914E1,3.3565707E0,4.091357E0,1.0028837E0,3.8215477E0,7.072432E0,1.1546572E0,5.942686E0,8.743573E0],"tree_param":{"num_deleted":"0","num_feature":"6","num_nodes":"27","size_leaf_vector":"1"}},{"base_weights":[3.0250766E-3,5.261287E-1,-2.8446991E-2,4.2325303E-2,1.20611906E-1,-7.139596E-1,1.0275805E-2,2.5275549E-2,-1.7713279E-2,-4.0481236E-2,-1.1758352E-2,-7.15198E-1,4.7224753E-2,-4.1731283E-2,-1.0794889E-2,3.904928E-2,-1.2108055E-4],"categories":[],"categories_nodes":[],"categories_segments":[],"categories_sizes":[],"default_left":[0,0,0,0,0,0,0,0,0,0,0,0,0,0,0,0,0],"id":46,"left_children":[1,3,5,-1,7,9,11,-1,-1,-1,-1,13,15,-1,-1,-1,-1],"loss_changes":[1.3800246E0,5.158918E-1,2.1086142E0,0E0,7.759671E-1,4.1131973E-3,2.0686488E0,0E0,0E0,0E0,0E0,4.2874455E-2,2.667431E0,0E0,0E0,0E0,0E0],"parents":[2147483647,0,0,1,1,2,2,4,4,5,5,6,6,11,11,12,12],"right_children":[2,4,6,-1,8,10,12,-1,-1,-1,-1,14,16,-1,-1,-1,-1],"split_conditions":[2.4135199E1,2.7296835E-4,2.9035639E1,4.2325303E-2,9.956455E-1,9.976876E-1,3.498216E-5,2.5275549E-2,-1.7713279E-2,-4.0481236E-2,-1.1758352E-2,1.2891048E0,4.955156E-5,-4.1731283E-2,-1.0794889E-2,3.904928E-2,-1.2108055E-4],"split_indices":[2,4,2,0,3,3,4,0,0,0,0,5,4,0,0,0,0],"split_type":[0,0,0,0,0,0,0,0,0,0,0,0,0,0,0,0,0],"sum_hessian":[8.191594E1,3.7567587E0,7.815918E1,1.4911811E0,2.2655778E0,3.2466035E0,7.4912575E1,1.2157092E0,1.0498685E0,2.1300395E0,1.116564E0,2.7408571E0,7.2171715E1,1.6698537E0,1.0710033E0,3.640156E0,6.853156E1],"tree_param":{"num_deleted":"0","num_feature":"6","num_nodes":"17","size_leaf_vector":"1"}},{"base_weights":[2.6537292E-3,9.6823774E-2,-1.6633677E-1,-3.3605143E-2,6.273954E-1,-6.825599E-1,-5.5353954E-3,-1.4797251E-1,4.087912E-1,7.6134634E-1,-1.5349992E-2,-8.401302E-1,-1.651803E-3,3.6493945E-1,-2.4498141E-1,1.0360092E-2,-1.622947E-2,-2.2361283E-3,4.42548E-2,5.9355702E-2,1.7708987E-2,-4.7775008E-2,-8.936415E-3,3.5356623E-4,4.3540668E-2,-5.0950986E-3,-3.331142E-2],"categories":[],"categories_nodes":[],"categories_segments":[],"categories_sizes":[],"default_left":[0,0,0,0,0,0,0,0,0,0,0,0,0,0,0,0,0,0,0,0,0,0,0,0,0,0,0],"id":47,"left_children":[1,3,5,7,9,11,13,15,17,19,-1,21,-1,23,25,-1,-1,-1,-1,-1,-1,-1,-1,-1,-1,-1,-1],"loss_changes":[1.3341364E0,3.7453513E0,2.4869595E0,2.2941544E0,1.5692377E0,7.0079136E-1,2.2083893E0,2.3137999E0,2.0558872E0,1.2471933E0,0E0,2.6323795E-1,0E0,1.7642583E0,8.426753E-1,0E0,0E0,0E0,0E0,0E0,0E0,0E0,0E0,0E0,0E0,0E0,0E0],"parents":[2147483647,0,0,1,1,2,2,3,3,4,4,5,5,6,6,7,7,8,8,9,9,11,11,13,13,14,14],"right_children":[2,4,6,8,10,12,14,16,18,20,-1,22,-1,24,26,-1,-1,-1,-1,-1,-1,-1,-1,-1,-1,-1,-1],"split_conditions":[1.0005476E0,1.0000131E0,1.0011281E0,9.1953017E-4,6.1758167E1,1.680395E0,1.0021677E0,3.6543655E1,4.0186916E1,2.4269977E-4,-1.5349992E-2,5.989786E-1,-1.651803E-3,1.1530089E0,1.1244663E0,1.0360092E-2,-1.622947E-2,-2.2361283E-3,4.42548E-2,5.9355702E-2,1.7708987E-2,-4.7775008E-2,-8.936415E-3,3.5356623E-4,4.3540668E-2,-5.0950986E-3,-3.331142E-2],"split_indices":[3,3,3,4,2,5,3,2,2,4,0,1,0,5,5,0,0,0,0,0,0,0,0,0,0,0,0],"split_type":[0,0,0,0,0,0,0,0,0,0,0,0,0,0,0,0,0,0,0,0,0,0,0,0,0,0,0],"sum_hessian":[8.182292E1,5.281743E1,2.9005493E1,4.3147312E1,9.670118E0,6.118486E0,2.2887007E1,3.4813038E1,8.334272E0,8.619642E0,1.0504763E0,4.6878004E0,1.4306855E0,8.779351E0,1.41076565E1,1.1504486E1,2.3308552E1,4.733435E0,3.6008372E0,3.277189E0,5.342453E0,3.6129293E0,1.074871E0,5.7357283E0,3.0436225E0,1.145783E1,2.6498256E0],"tree_param":{"num_deleted":"0","num_feature":"6","num_nodes":"27","size_leaf_vector":"1"}},{"base_weights":[2.9978002E-3,5.8732852E-2,-2.747862E-1,1.5872212E-2,6.404767E-1,-5.388392E-1,3.3199E-1,6.031703E-2,-5.3627944E-1,5.799909E-3,8.1980926E-1,-8.171606E-1,1.662618E-1,6.722009E-1,-1.8557232E-2,-2.8822219E-2,5.7271016E-3,-3.9587956E-2,2.4813013E-3,1.1468623E-2,5.177599E-2,-3.6614672E-3,-4.945574E-2,2.5225718E-2,-1.5608452E-2,4.0350165E-2,1.033948E-2],"categories":[],"categories_nodes":[],"categories_segments":[],"categories_sizes":[],"default_left":[0,0,0,0,0,0,0,0,0,0,0,0,0,0,0,0,0,0,0,0,0,0,0,0,0,0,0],"id":48,"left_children":[1,3,5,7,9,11,13,15,17,-1,19,21,23,25,-1,-1,-1,-1,-1,-1,-1,-1,-1,-1,-1,-1,-1],"loss_changes":[1.2939446E0,1.7243593E0,2.416923E0,1.6475075E0,3.5149717E-1,2.1207087E0,1.4106932E0,2.2003117E0,7.883655E-1,0E0,1.921413E-1,8.768482E-1,7.5519335E-1,6.0681105E-2,0E0,0E0,0E0,0E0,0E0,0E0,0E0,0E0,0E0,0E0,0E0,0E0,0E0],"parents":[2147483647,0,0,1,1,2,2,3,3,4,4,5,5,6,6,7,7,8,8,10,10,11,11,12,12,13,13],"right_children":[2,4,6,8,10,12,14,16,18,-1,20,22,24,26,-1,-1,-1,-1,-1,-1,-1,-1,-1,-1,-1,-1,-1],"split_conditions":[8.956571E-1,3.106515E0,1.6575072E0,2.0132105E0,1.2E1,1.9E1,2.001293E0,4.0094623E-5,2.537926E0,5.799909E-3,1.4817142E-1,9.7531426E-1,1.0018378E0,5.656237E1,-1.8557232E-2,-2.8822219E-2,5.7271016E-3,-3.9587956E-2,2.4813013E-3,1.1468623E-2,5.177599E-2,-3.6614672E-3,-4.945574E-2,2.5225718E-2,-1.5608452E-2,4.0350165E-2,1.033948E-2],"split_indices":[1,5,1,5,0,0,1,4,5,0,1,1,3,2,0,0,0,0,0,0,0,0,0,0,0,0,0],"split_type":[0,0,0,0,0,0,0,0,0,0,0,0,0,0,0,0,0,0,0,0,0,0,0,0,0,0,0],"sum_hessian":[8.1533295E1,6.856489E1,1.2968409E1,6.481673E1,3.7481625E0,9.11414E0,3.8542695E0,6.0812458E1,4.0042686E0,1.3746563E0,2.373506E0,6.42077E0,2.6933694E0,2.6271298E0,1.2271397E0,4.0164843E0,5.679597E1,2.5437455E0,1.4605235E0,1.1872185E0,1.1862876E0,1.4731773E0,4.9475927E0,1.5458959E0,1.1474735E0,1.4679834E0,1.1591463E0],"tree_param":{"num_deleted":"0","num_feature":"6","num_nodes":"27","size_leaf_vector":"1"}},{"base_weights":[2.7597311E-3,5.050108E-1,-2.7577437E-2,4.1142315E-2,1.06812835E-1,-7.041129E-1,1.03671355E-2,2.4225958E-2,-1.7596753E-2,-4.0002014E-2,-1.1532139E-2,-1.6495754E-1,1.5788813E-1,6.1905873E-3,-2.1757372E-2,5.237732E-2,3.9103194E-3],"categories":[],"categories_nodes":[],"categories_segments":[],"categories_sizes":[],"default_left":[0,0,0,0,0,0,0,0,0,0,0,0,0,0,0,0,0],"id":49,"left_children":[1,3,5,-1,7,9,11,-1,-1,-1,-1,13,15,-1,-1,-1,-1],"loss_changes":[1.2701818E0,5.130464E-1,2.0275996E0,0E0,7.3483384E-1,5.9678555E-3,1.9789386E0,0E0,0E0,0E0,0E0,2.7839444E0,2.861074E0,0E0,0E0,0E0,0E0],"parents":[2147483647,0,0,1,1,2,2,4,4,5,5,6,6,11,11,12,12],"right_children":[2,4,6,-1,8,10,12,-1,-1,-1,-1,14,16,-1,-1,-1,-1],"split_conditions":[2.4135199E1,2.7296835E-4,2.9035639E1,4.1142315E-2,9.956455E-1,9.976876E-1,7.944515E-1,2.4225958E-2,-1.7596753E-2,-4.0002014E-2,-1.1532139E-2,4.7576177E-1,8.237901E-1,6.1905873E-3,-2.1757372E-2,5.237732E-2,3.9103194E-3],"split_indices":[2,4,2,0,3,3,5,0,0,0,0,5,5,0,0,0,0],"split_type":[0,0,0,0,0,0,0,0,0,0,0,0,0,0,0,0,0],"sum_hessian":[8.144834E1,3.7481835E0,7.770016E1,1.4913697E0,2.2568138E0,3.1941144E0,7.450604E1,1.2069248E0,1.049889E0,2.0824597E0,1.1116548E0,3.3990757E1,4.051528E1,1.669234E1,1.7298416E1,2.3319616E0,3.8183323E1],"tree_param":{"num_deleted":"0","num_feature":"6","num_nodes":"17","size_leaf_vector":"1"}},{"base_weights":[3.0199606E-3,5.52678E-1,-2.337881E-2,-3.6781863E-3,4.3007232E-2,-7.9326755E-1,1.9850202E-2,-4.5010515E-2,-1.1997441E-2,3.1582668E-1,-5.9163887E-2,6.567174E-3,6.12404E-2,-1.6619952E-2,1.717256E-3],"categories":[],"categories_nodes":[],"categories_segments":[],"categories_sizes":[],"default_left":[0,0,0,0,0,0,0,0,0,0,0,0,0,0,0],"id":50,"left_children":[1,3,5,-1,-1,7,9,-1,-1,11,13,-1,-1,-1,-1],"loss_changes":[1.2073948E0,7.974614E-1,2.6618302E0,0E0,0E0,3.556013E-2,1.802003E0,0E0,0E0,2.559992E0,1.5707138E0,0E0,0E0,0E0,0E0],"parents":[2147483647,0,0,1,1,2,2,5,5,6,6,9,9,10,10],"right_children":[2,4,6,-1,-1,8,10,-1,-1,12,14,-1,-1,-1,-1],"split_conditions":[2.2427984E1,3.038214E-1,9.967203E-1,-3.6781863E-3,4.3007232E-2,3.4953156E1,9.9873376E-1,-4.5010515E-2,-1.1997441E-2,9.985905E-1,9.9962556E-1,6.567174E-3,6.12404E-2,-1.6619952E-2,1.717256E-3],"split_indices":[2,1,3,0,0,2,3,0,0,3,3,0,0,0,0],"split_type":[0,0,0,0,0,0,0,0,0,0,0,0,0,0,0],"sum_hessian":[8.131907E1,2.8129935E0,7.850607E1,1.1768178E0,1.6361759E0,3.2513142E0,7.525476E1,2.199313E0,1.0520014E0,1.5225378E1,6.002938E1,1.360804E1,1.6173382E0,1.4654351E1,4.5375027E1],"tree_param":{"num_deleted":"0","num_feature":"6","num_nodes":"15","size_leaf_vector":"1"}},{"base_weights":[3.26763E-3,9.358901E-2,-1.592897E-1,-3.0613426E-2,5.927048E-1,-6.6992426E-1,-1.910472E-3,-2.4825151E-1,1.9498014E-1,6.0144152E-2,2.9215685E-1,-8.2671183E-1,-1.7333732E-3,2.9687938E-1,-2.7511087E-1,-3.357044E-2,7.5356863E-3,2.1361431E-2,-1.2040325E-2,3.2991644E-2,-5.103541E-3,-4.70238E-2,-8.050267E-3,-3.826255E-2,2.4399776E-2,-3.0870402E-2,-2.056103E-3],"categories":[],"categories_nodes":[],"categories_segments":[],"categories_sizes":[],"default_left":[0,0,0,0,0,0,0,0,0,0,0,0,0,0,0,0,0,0,0,0,0,0,0,0,0,0,0],"id":51,"left_children":[1,3,5,7,9,11,13,15,17,-1,19,21,-1,23,25,-1,-1,-1,-1,-1,-1,-1,-1,-1,-1,-1,-1],"loss_changes":[1.2221247E0,3.3337212E0,2.3885279E0,2.1978073E0,1.611999E0,6.688509E-1,2.0191076E0,3.9372E0,2.335208E0,0E0,1.29854E0,2.7064443E-1,0E0,2.772234E0,1.0091953E0,0E0,0E0,0E0,0E0,0E0,0E0,0E0,0E0,0E0,0E0,0E0,0E0],"parents":[2147483647,0,0,1,1,2,2,3,3,4,4,5,5,6,6,7,7,8,8,10,10,11,11,13,13,14,14],"right_children":[2,4,6,8,10,12,14,16,18,-1,20,22,-1,24,26,-1,-1,-1,-1,-1,-1,-1,-1,-1,-1,-1,-1],"split_conditions":[1.0005476E0,1.0000131E0,1.0011281E0,3.6038033E-4,4.9058693E1,1.680395E0,1.002476E0,1.8E1,1.4E1,6.0144152E-2,2.909E-1,1.8E1,-1.7333732E-3,4.0094623E-5,6.817289E1,-3.357044E-2,7.5356863E-3,2.1361431E-2,-1.2040325E-2,3.2991644E-2,-5.103541E-3,-4.70238E-2,-8.050267E-3,-3.826255E-2,2.4399776E-2,-3.0870402E-2,-2.056103E-3],"split_indices":[3,3,3,4,2,5,3,0,0,0,1,0,0,4,2,0,0,0,0,0,0,0,0,0,0,0,0],"split_type":[0,0,0,0,0,0,0,0,0,0,0,0,0,0,0,0,0,0,0,0,0,0,0,0,0,0,0],"sum_hessian":[8.122203E1,5.248447E1,2.873756E1,4.2778038E1,9.706434E0,6.003095E0,2.2734467E1,2.1721806E1,2.105623E1,2.2124248E0,7.494009E0,4.5730414E0,1.4300535E0,1.0817292E1,1.1917173E1,1.0209916E1,1.1511889E1,1.37486515E1,7.3075795E0,3.5289767E0,3.9650323E0,3.553096E0,1.0199455E0,1.1914847E0,9.625808E0,4.1733894E0,7.7437835E0],"tree_param":{"num_deleted":"0","num_feature":"6","num_nodes":"27","size_leaf_vector":"1"}},{"base_weights":[2.6058066E-3,3.6132608E-2,-4.2381686E-1,-9.408361E-3,6.483333E-1,-4.5187417E-2,9.417542E-2,-6.2491752E-2,4.9386618E-1,-6.084492E-3,8.687581E-1,6.1464876E-2,-4.0139277E-2,7.4165496E-3,-1.3575857E-2,-2.1482257E-2,3.9957948E-2,5.5158567E-2,7.127568E-3],"categories":[],"categories_nodes":[],"categories_segments":[],"categories_sizes":[],"default_left":[0,0,0,0,0,0,0,0,0,0,0,0,0,0,0,0,0,0,0],"id":52,"left_children":[1,3,5,7,9,-1,11,13,15,-1,17,-1,-1,-1,-1,-1,-1,-1,-1],"loss_changes":[1.186854E0,2.1499126E0,1.5895821E0,1.9692179E0,1.0118E0,0E0,4.872263E0,2.9716492E0,2.3268118E0,0E0,5.701661E-1,0E0,0E0,0E0,0E0,0E0,0E0,0E0,0E0],"parents":[2147483647,0,0,1,1,2,2,3,3,4,4,6,6,7,7,8,8,10,10],"right_children":[2,4,6,8,10,-1,12,14,16,-1,18,-1,-1,-1,-1,-1,-1,-1,-1],"split_conditions":[7.3067154E1,1.814882E-3,4.0167144E-1,6.7063324E1,2.9035639E1,-4.5187417E-2,7.8105E-1,3.6162856E-1,1.001353E0,-6.084492E-3,5.6060608E1,6.1464876E-2,-4.0139277E-2,7.4165496E-3,-1.3575857E-2,-2.1482257E-2,3.9957948E-2,5.5158567E-2,7.127568E-3],"split_indices":[2,4,1,2,2,0,1,1,3,0,2,0,0,0,0,0,0,0,0],"split_type":[0,0,0,0,0,0,0,0,0,0,0,0,0,0,0,0,0,0,0],"sum_hessian":[8.094546E1,7.58937E1,5.0517554E0,7.1555405E1,4.3382993E0,2.2356558E0,2.8160994E0,6.55204E1,6.0350013E0,1.0651783E0,3.273121E0,1.0794808E0,1.7366185E0,3.276452E1,3.2755882E1,1.3981802E0,4.636821E0,2.0819864E0,1.1911346E0],"tree_param":{"num_deleted":"0","num_feature":"6","num_nodes":"19","size_leaf_vector":"1"}},{"base_weights":[2.963265E-3,4.8224917E-1,-2.6064457E-2,4.0450517E-2,9.198406E-2,-3.434772E-2,1.0297674E-2,-2.1148821E-2,2.6590882E-2,-1.5743959E-1,1.5072086E-1,5.90931E-3,-2.0949716E-2,5.027434E-2,3.6572663E-3],"categories":[],"categories_nodes":[],"categories_segments":[],"categories_sizes":[],"default_left":[0,0,0,0,0,0,0,0,0,0,0,0,0,0,0],"id":53,"left_children":[1,3,5,-1,7,-1,9,-1,-1,11,13,-1,-1,-1,-1],"loss_changes":[1.1505597E0,5.2778804E-1,1.8832861E0,0E0,9.679284E-1,0E0,1.7899911E0,0E0,0E0,2.5481567E0,2.6668508E0,0E0,0E0,0E0,0E0],"parents":[2147483647,0,0,1,1,2,2,4,4,6,6,9,9,10,10],"right_children":[2,4,6,-1,8,-1,10,-1,-1,12,14,-1,-1,-1,-1],"split_conditions":[2.4135199E1,8.990836E-1,2.9035639E1,4.0450517E-2,1.4045702E0,-3.434772E-2,7.944515E-1,-2.1148821E-2,2.6590882E-2,4.7576177E-1,8.237901E-1,5.90931E-3,-2.0949716E-2,5.027434E-2,3.6572663E-3],"split_indices":[2,5,2,0,5,0,5,0,0,5,5,0,0,0,0],"split_type":[0,0,0,0,0,0,0,0,0,0,0,0,0,0,0],"sum_hessian":[8.079577E1,3.7222998E0,7.707347E1,1.4419812E0,2.2803185E0,3.0863492E0,7.398712E1,1.0681024E0,1.2122163E0,3.365938E1,4.0327736E1,1.665574E1,1.7003643E1,2.360224E0,3.7967514E1],"tree_param":{"num_deleted":"0","num_feature":"6","num_nodes":"15","size_leaf_vector":"1"}},{"base_weights":[3.3869569E-3,-5.9065677E-2,2.2315022E-1,3.098203E-3,-6.344325E-1,3.6129943E-1,-3.7093826E-2,-4.7884174E-2,7.809346E-1,1.0458059E-2,-8.575979E-1,-2.3437063E-1,5.378562E-1,3.134467E-4,-4.716375E-2,8.035498E-2,-9.313846E-3,-1.1615039E-2,-4.8113037E-2,-3.9460097E-2,9.964955E-3,3.381338E-2,-2.1653263E-2],"categories":[],"categories_nodes":[],"categories_segments":[],"categories_sizes":[],"default_left":[0,0,0,0,0,0,0,0,0,0,0,0,0,0,0,0,0,0,0,0,0,0,0],"id":54,"left_children":[1,3,5,7,9,11,-1,13,15,-1,17,19,21,-1,-1,-1,-1,-1,-1,-1,-1,-1,-1],"loss_changes":[1.1339595E0,2.304667E0,2.705133E0,2.3809865E0,1.3621123E0,1.8785634E0,0E0,2.7408946E0,3.2503731E0,0E0,1.1444092E-1,1.2415779E0,2.0610266E0,0E0,0E0,0E0,0E0,0E0,0E0,0E0,0E0,0E0,0E0],"parents":[2147483647,0,0,1,1,2,2,3,3,4,4,5,5,7,7,8,8,10,10,11,11,12,12],"right_children":[2,4,6,8,10,12,-1,14,16,-1,18,20,22,-1,-1,-1,-1,-1,-1,-1,-1,-1,-1],"split_conditions":[7.8926596E-4,6.4249255E-4,1.006516E0,5.78793E-4,1E1,1E1,-3.7093826E-2,5.340004E-4,1.0159582E0,1.0458059E-2,6.767356E-4,1.2925927E-3,2E1,3.134467E-4,-4.716375E-2,8.035498E-2,-9.313846E-3,-1.1615039E-2,-4.8113037E-2,-3.9460097E-2,9.964955E-3,3.381338E-2,-2.1653263E-2],"split_indices":[4,4,3,4,0,0,0,4,5,0,4,4,0,0,0,0,0,0,0,0,0,0,0],"split_type":[0,0,0,0,0,0,0,0,0,0,0,0,0,0,0,0,0,0,0,0,0,0,0],"sum_hessian":[8.06609E1,6.3380554E1,1.7280346E1,5.809812E1,5.282432E0,1.5663614E1,1.616731E0,5.5405098E1,2.6930232E0,1.1182096E0,4.1642227E0,3.5063581E0,1.2157256E1,5.318168E1,2.2234216E0,1.0956063E0,1.5974169E0,1.0586922E0,3.1055303E0,1.1786222E0,2.327736E0,1.090601E1,1.251246E0],"tree_param":{"num_deleted":"0","num_feature":"6","num_nodes":"23","size_leaf_vector":"1"}},{"base_weights":[2.1694389E-3,8.785124E-2,-1.527858E-1,-3.230695E-2,5.681861E-1,-6.509071E-1,-1.409822E-3,1.17488325E-1,-3.441095E-1,5.795128E-2,2.762912E-1,-8.0817634E-1,-1.5487251E-3,3.4813833E-1,-2.134283E-1,1.1449657E-2,-2.1455977E-2,-3.617702E-2,-1.5346223E-3,3.1759586E-2,-4.4775335E-3,-4.622028E-2,-7.434455E-3,2.6287869E-2,-2.4125874E-2,-1.9345891E-3,-3.065371E-2],"categories":[],"categories_nodes":[],"categories_segments":[],"categories_sizes":[],"default_left":[0,0,0,0,0,0,0,0,0,0,0,0,0,0,0,0,0,0,0,0,0,0,0,0,0,0,0],"id":55,"left_children":[1,3,5,7,9,11,13,15,17,-1,19,21,-1,23,25,-1,-1,-1,-1,-1,-1,-1,-1,-1,-1,-1,-1],"loss_changes":[1.0958338E0,3.0849748E0,2.215459E0,2.0696943E0,1.522646E0,6.4266753E-1,1.8192416E0,1.9324386E0,1.6847429E0,0E0,1.1683681E0,2.782185E-1,0E0,1.621304E0,1.0430157E0,0E0,0E0,0E0,0E0,0E0,0E0,0E0,0E0,0E0,0E0,0E0,0E0],"parents":[2147483647,0,0,1,1,2,2,3,3,4,4,5,5,6,6,7,7,8,8,10,10,11,11,13,13,14,14],"right_children":[2,4,6,8,10,12,14,16,18,-1,20,22,-1,24,26,-1,-1,-1,-1,-1,-1,-1,-1,-1,-1,-1,-1],"split_conditions":[1.0005476E0,1.0000131E0,1.0011281E0,9.9929017E-1,4.9058693E1,1.680395E0,1.0020715E0,8.117643E-1,2.644E-1,5.795128E-2,2.4269977E-4,1.8E1,-1.5487251E-3,1.9587504E0,8.535477E-4,1.1449657E-2,-2.1455977E-2,-3.617702E-2,-1.5346223E-3,3.1759586E-2,-4.4775335E-3,-4.622028E-2,-7.434455E-3,2.6287869E-2,-2.4125874E-2,-1.9345891E-3,-3.065371E-2],"split_indices":[3,3,3,3,2,5,3,1,1,0,4,0,0,5,4,0,0,0,0,0,0,0,0,0,0,0,0],"split_type":[0,0,0,0,0,0,0,0,0,0,0,0,0,0,0,0,0,0,0,0,0,0,0,0,0,0,0],"sum_hessian":[8.052627E1,5.2132748E1,2.8393517E1,4.244713E1,9.685622E0,5.848469E0,2.2545048E1,2.909337E1,1.3353755E1,2.2204335E0,7.4651885E0,4.4228063E0,1.4256628E0,8.269449E0,1.4275599E1,2.464666E1,4.4467106E0,5.448774E0,7.9049816E0,3.3966947E0,4.0684934E0,3.4186018E0,1.0042044E0,7.1150885E0,1.1543608E0,1.0695874E1,3.5797243E0],"tree_param":{"num_deleted":"0","num_feature":"6","num_nodes":"27","size_leaf_vector":"1"}},{"base_weights":[1.3882758E-3,-5.970282E-2,2.1723802E-1,7.4911346E-5,-6.205282E-1,3.4777787E-1,-3.60464E-2,-4.9487334E-2,7.499251E-1,1.0015349E-2,-8.42843E-1,-2.3034918E-1,5.181066E-1,1.4802463E-4,-4.635271E-2,7.683275E-2,-9.225017E-3,-1.1657259E-2,-4.7242265E-2,-2.7453912E-2,2.1766966E-2,-1.6408073E-3,3.876232E-2],"categories":[],"categories_nodes":[],"categories_segments":[],"categories_sizes":[],"default_left":[0,0,0,0,0,0,0,0,0,0,0,0,0,0,0,0,0,0,0,0,0,0,0],"id":56,"left_children":[1,3,5,7,9,11,-1,13,15,-1,17,19,21,-1,-1,-1,-1,-1,-1,-1,-1,-1,-1],"loss_changes":[1.085955E0,2.152504E0,2.475379E0,2.2305593E0,1.2973905E0,1.7560372E0,0E0,2.594002E0,3.0190206E0,0E0,9.430218E-2,1.1884558E0,1.887789E0,0E0,0E0,0E0,0E0,0E0,0E0,0E0,0E0,0E0,0E0],"parents":[2147483647,0,0,1,1,2,2,3,3,4,4,5,5,7,7,8,8,10,10,11,11,12,12],"right_children":[2,4,6,8,10,12,-1,14,16,-1,18,20,22,-1,-1,-1,-1,-1,-1,-1,-1,-1,-1],"split_conditions":[7.8926596E-4,6.4249255E-4,1.006516E0,5.78793E-4,1E1,1E1,-3.60464E-2,5.340004E-4,1.0159582E0,1.0015349E-2,6.767356E-4,1.806607E-3,3.9209225E1,1.4802463E-4,-4.635271E-2,7.683275E-2,-9.225017E-3,-1.1657259E-2,-4.7242265E-2,-2.7453912E-2,2.1766966E-2,-1.6408073E-3,3.876232E-2],"split_indices":[4,4,3,4,0,0,0,4,5,0,4,4,2,0,0,0,0,0,0,0,0,0,0],"split_type":[0,0,0,0,0,0,0,0,0,0,0,0,0,0,0,0,0,0,0,0,0,0,0],"sum_hessian":[8.0369995E1,6.32048E1,1.7165197E1,5.8020348E1,5.1844554E0,1.5620942E1,1.5442548E0,5.529928E1,2.7210684E0,1.1260022E0,4.058453E0,3.4747202E0,1.2146222E1,5.3121117E1,2.17816E0,1.1273857E0,1.5936825E0,1.0525765E0,3.0058768E0,2.4681516E0,1.0065688E0,4.14275E0,8.003472E0],"tree_param":{"num_deleted":"0","num_feature":"6","num_nodes":"23","size_leaf_vector":"1"}},{"base_weights":[8.554104E-4,5.200026E-1,-2.4233814E-2,-4.504626E-3,4.1421216E-2,-7.807058E-1,1.739646E-2,-4.44172E-2,-1.1483229E-2,2.953156E-1,-5.7281084E-2,5.8531896E-3,5.803531E-2,-1.5862951E-2,1.5834197E-3],"categories":[],"categories_nodes":[],"categories_segments":[],"categories_sizes":[],"default_left":[0,0,0,0,0,0,0,0,0,0,0,0,0,0,0],"id":57,"left_children":[1,3,5,-1,-1,7,9,-1,-1,11,13,-1,-1,-1,-1],"loss_changes":[1.0705845E0,7.8761435E-1,2.4837623E0,0E0,0E0,3.9948225E-2,1.5802302E0,0E0,0E0,2.350093E0,1.4023753E0,0E0,0E0,0E0,0E0],"parents":[2147483647,0,0,1,1,2,2,5,5,6,6,9,9,10,10],"right_children":[2,4,6,-1,-1,8,10,-1,-1,12,14,-1,-1,-1,-1],"split_conditions":[2.2427984E1,3.038214E-1,9.967203E-1,-4.504626E-3,4.1421216E-2,3.4953156E1,9.9873376E-1,-4.44172E-2,-1.1483229E-2,9.985905E-1,9.9962556E-1,5.8531896E-3,5.803531E-2,-1.5862951E-2,1.5834197E-3],"split_indices":[2,1,3,0,0,2,3,0,0,3,3,0,0,0,0],"split_type":[0,0,0,0,0,0,0,0,0,0,0,0,0,0,0],"sum_hessian":[8.02271E1,2.7890863E0,7.743801E1,1.1742235E0,1.6148628E0,3.1132479E0,7.432477E1,2.0924067E0,1.020841E0,1.5115722E1,5.9209045E1,1.3475361E1,1.6403607E0,1.4439405E1,4.4769638E1],"tree_param":{"num_deleted":"0","num_feature":"6","num_nodes":"15","size_leaf_vector":"1"}},{"base_weights":[1.1622263E-3,8.518132E-2,-1.5083191E-1,-3.06134E-2,5.4512787E-1,-6.380382E-1,-4.7350544E-3,-2.3877856E-1,1.8611966E-1,9.737588E-1,1.8149036E-1,-7.939693E-1,-1.7242465E-3,-4.0180173E-2,8.0939695E-2,-3.268164E-2,7.2430135E-3,2.0026369E-2,-1.107751E-2,5.935211E-2,5.774742E-3,-1.787754E-2,2.5839483E-2,-4.553033E-2,-7.3033585E-3,2.2396477E-2,-1.1974983E-2],"categories":[],"categories_nodes":[],"categories_segments":[],"categories_sizes":[],"default_left":[0,0,0,0,0,0,0,0,0,0,0,0,0,0,0,0,0,0,0,0,0,0,0,0,0,0,0],"id":58,"left_children":[1,3,5,7,9,11,13,15,17,19,21,23,-1,-1,25,-1,-1,-1,-1,-1,-1,-1,-1,-1,-1,-1,-1],"loss_changes":[1.0488507E0,2.8332734E0,2.0783296E0,1.9932336E0,1.4893911E0,6.067629E-1,1.6736438E0,3.6710358E0,1.9875705E0,7.1907663E-1,1.4521705E0,2.6821232E-1,0E0,0E0,2.7102976E0,0E0,0E0,0E0,0E0,0E0,0E0,0E0,0E0,0E0,0E0,0E0,0E0],"parents":[2147483647,0,0,1,1,2,2,3,3,4,4,5,5,6,6,7,7,8,8,9,9,10,10,11,11,14,14],"right_children":[2,4,6,8,10,12,14,16,18,20,22,24,-1,-1,26,-1,-1,-1,-1,-1,-1,-1,-1,-1,-1,-1,-1],"split_conditions":[1.0005476E0,1.0000131E0,1.0011281E0,3.6038033E-4,5.1954346E1,1.680395E0,4.433532E-5,1.8E1,1.4E1,3.6162856E-1,5.496536E1,1.8E1,-1.7242465E-3,-4.0180173E-2,1.002476E0,-3.268164E-2,7.2430135E-3,2.0026369E-2,-1.107751E-2,5.935211E-2,5.774742E-3,-1.787754E-2,2.5839483E-2,-4.553033E-2,-7.3033585E-3,2.2396477E-2,-1.1974983E-2],"split_indices":[3,3,3,4,2,5,4,0,0,1,2,0,0,0,3,0,0,0,0,0,0,0,0,0,0,0,0],"split_type":[0,0,0,0,0,0,0,0,0,0,0,0,0,0,0,0,0,0,0,0,0,0,0,0,0,0,0],"sum_hessian":[8.0125244E1,5.1884296E1,2.824095E1,4.2194885E1,9.689412E0,5.738125E0,2.2502825E1,2.147098E1,2.0723906E1,3.6771784E0,6.0122333E0,4.3093033E0,1.4288216E0,1.3679323E0,2.1134893E1,9.977679E0,1.14933E1,1.3592605E1,7.131301E0,2.638438E0,1.0387403E0,2.2801716E0,3.7320616E0,3.3082685E0,1.0010345E0,9.666394E0,1.1468499E1],"tree_param":{"num_deleted":"0","num_feature":"6","num_nodes":"27","size_leaf_vector":"1"}},{"base_weights":[6.691339E-4,-3.0555312E-2,4.0302074E-1,2.2980258E-2,-3.428343E-1,7.8420347E-1,-3.1534243E-2,1.2644361E-1,-1.4095488E-1,-6.564008E-1,6.717107E-2,-7.019634E-3,5.4099094E-2,5.277794E-4,2.5422221E-2,-1.4561211E-2,3.3204194E-2,-4.7882415E-2,-7.074707E-3,-3.3243474E-2,1.9824052E-2],"categories":[],"categories_nodes":[],"categories_segments":[],"categories_sizes":[],"default_left":[0,0,0,0,0,0,0,0,0,0,0,0,0,0,0,0,0,0,0,0,0],"id":59,"left_children":[1,3,5,7,9,11,-1,13,15,17,19,-1,-1,-1,-1,-1,-1,-1,-1,-1,-1],"loss_changes":[1.0280933E0,1.2777846E0,2.8166962E0,1.1335518E0,1.4813479E0,1.4600501E0,0E0,1.8032887E0,3.3296382E0,8.6149406E-1,1.6501907E0,0E0,0E0,0E0,0E0,0E0,0E0,0E0,0E0,0E0,0E0],"parents":[2147483647,0,0,1,1,2,2,3,3,4,4,5,5,7,7,8,8,9,9,10,10],"right_children":[2,4,6,8,10,12,-1,14,16,18,20,-1,-1,-1,-1,-1,-1,-1,-1,-1,-1],"split_conditions":[1.814882E-3,8.956571E-1,1.0034448E0,5.357143E1,5.3322273E1,2.9035639E1,-3.1534243E-2,9.9982065E-1,6.933214E-1,9.1953017E-4,2.0398796E-4,-7.019634E-3,5.4099094E-2,5.277794E-4,2.5422221E-2,-1.4561211E-2,3.3204194E-2,-4.7882415E-2,-7.074707E-3,-3.3243474E-2,1.9824052E-2],"split_indices":[4,1,3,2,2,2,0,3,1,4,4,0,0,0,0,0,0,0,0,0,0],"split_type":[0,0,0,0,0,0,0,0,0,0,0,0,0,0,0,0,0,0,0,0,0],"sum_hessian":[7.9853485E1,7.4960266E1,4.893224E0,6.478095E1,1.0179316E1,3.751289E0,1.1419348E0,3.9855743E1,2.4925207E1,5.4274893E0,4.751827E0,1.0425925E0,2.7086964E0,3.1367407E1,8.488335E0,2.1542341E1,3.3828669E0,2.8816967E0,2.5457923E0,1.1582079E0,3.5936189E0],"tree_param":{"num_deleted":"0","num_feature":"6","num_nodes":"21","size_leaf_vector":"1"}},{"base_weights":[4.768653E-4,5.1023716E-1,-2.4203988E-2,4.4660967E-2,-4.0909243E-4,-3.826975E-2,1.5985355E-2,2.8432426E-1,-5.6267623E-2,2.556607E-2,-1.4412514E-2,-1.5235429E-2,1.4231503E-3],"categories":[],"categories_nodes":[],"categories_segments":[],"categories_sizes":[],"default_left":[0,0,0,0,0,0,0,0,0,0,0,0,0],"id":60,"left_children":[1,3,5,-1,-1,-1,7,9,11,-1,-1,-1,-1],"loss_changes":[1.0278971E0,7.5640565E-1,2.3340814E0,0E0,0E0,0E0,1.4684957E0,2.2344775E0,1.2687244E0,0E0,0E0,0E0,0E0],"parents":[2147483647,0,0,1,1,2,2,6,6,7,7,8,8],"right_children":[2,4,6,-1,-1,-1,8,10,12,-1,-1,-1,-1],"split_conditions":[2.2427984E1,9.956455E-1,9.967203E-1,4.4660967E-2,-4.0909243E-4,-3.826975E-2,9.9873376E-1,6.2941426E-1,9.9962556E-1,2.556607E-2,-1.4412514E-2,-1.5235429E-2,1.4231503E-3],"split_indices":[2,3,3,0,0,0,3,1,3,0,0,0,0],"split_type":[0,0,0,0,0,0,0,0,0,0,0,0,0],"sum_hessian":[7.971867E1,2.7729313E0,7.694574E1,1.1789868E0,1.5939444E0,3.0295017E0,7.391624E1,1.5057896E1,5.8858345E1,1.0859591E1,4.198305E0,1.4308323E1,4.4550022E1],"tree_param":{"num_deleted":"0","num_feature":"6","num_nodes":"13","size_leaf_vector":"1"}},{"base_weights":[4.6025796E-4,4.9811086E-1,-2.3583042E-2,-4.6246327E-3,3.9990265E-2,-3.7445955E-2,1.513015E-2,-1.3860232E-1,1.3671121E-1,-7.750237E-4,-3.3054825E-2,3.6307722E-2,3.0228158E-3],"categories":[],"categories_nodes":[],"categories_segments":[],"categories_sizes":[],"default_left":[0,0,0,0,0,0,0,0,0,0,0,0,0],"id":61,"left_children":[1,3,5,-1,-1,-1,7,9,11,-1,-1,-1,-1],"loss_changes":[9.764232E-1,7.441019E-1,2.197725E0,0E0,0E0,0E0,1.4188607E0,2.149114E0,1.8585513E0,0E0,0E0,0E0,0E0],"parents":[2147483647,0,0,1,1,2,2,6,6,7,7,8,8],"right_children":[2,4,6,-1,-1,-1,8,10,12,-1,-1,-1,-1],"split_conditions":[2.2427984E1,3.038214E-1,9.967203E-1,-4.6246327E-3,3.9990265E-2,-3.7445955E-2,7.7369756E-1,6.7317414E-1,8.237901E-1,-7.750237E-4,-3.3054825E-2,3.6307722E-2,3.0228158E-3],"split_indices":[2,1,3,0,0,0,5,5,5,0,0,0,0],"split_type":[0,0,0,0,0,0,0,0,0,0,0,0,0],"sum_hessian":[7.962374E1,2.7609103E0,7.686283E1,1.1679429E0,1.5929674E0,2.964992E0,7.389784E1,3.2572163E1,4.132568E1,2.7194653E1,5.3775086E0,3.7575374E0,3.7568142E1],"tree_param":{"num_deleted":"0","num_feature":"6","num_nodes":"13","size_leaf_vector":"1"}},{"base_weights":[4.3614965E-4,8.195395E-2,-1.4698914E-1,-2.8890477E-2,5.1880974E-1,-6.247868E-1,-5.2795038E-3,-2.3042352E-1,1.807904E-1,5.359123E-2,2.4611335E-1,-7.806783E-1,-1.7019697E-3,-3.9223053E-2,7.738113E-2,-3.1875677E-2,6.9417134E-3,-3.5360802E-2,1.3199327E-2,2.938725E-2,-5.830784E-3,-7.241396E-3,-4.5199584E-2,2.1404898E-2,-1.1589605E-2],"categories":[],"categories_nodes":[],"categories_segments":[],"categories_sizes":[],"default_left":[0,0,0,0,0,0,0,0,0,0,0,0,0,0,0,0,0,0,0,0,0,0,0,0,0],"id":62,"left_children":[1,3,5,7,9,11,13,15,17,-1,19,21,-1,-1,23,-1,-1,-1,-1,-1,-1,-1,-1,-1,-1],"loss_changes":[9.798581E-1,2.557171E0,1.962427E0,1.8512053E0,1.3464572E0,5.8422637E-1,1.5678226E0,3.4368794E0,1.7785602E0,0E0,1.1155833E0,2.7696514E-1,0E0,0E0,2.491855E0,0E0,0E0,0E0,0E0,0E0,0E0,0E0,0E0,0E0,0E0],"parents":[2147483647,0,0,1,1,2,2,3,3,4,4,5,5,6,6,7,7,8,8,10,10,11,11,14,14],"right_children":[2,4,6,8,10,12,14,16,18,-1,20,22,-1,-1,24,-1,-1,-1,-1,-1,-1,-1,-1,-1,-1],"split_conditions":[1.0005476E0,1.0000131E0,1.0011281E0,3.6038033E-4,4.9058693E1,1.680395E0,4.433532E-5,1.8E1,2.4131429E-1,5.359123E-2,2.909E-1,3.6127704E-1,-1.7019697E-3,-3.9223053E-2,1.002476E0,-3.1875677E-2,6.9417134E-3,-3.5360802E-2,1.3199327E-2,2.938725E-2,-5.830784E-3,-7.241396E-3,-4.5199584E-2,2.1404898E-2,-1.1589605E-2],"split_indices":[3,3,3,4,2,5,4,0,1,0,1,5,0,0,3,0,0,0,0,0,0,0,0,0,0],